<?xml version="1.0"?>
<opencv_storage>
<cascade>
  <stageType>BOOST</stageType>
  <featureType>HAAR</featureType>
  <height>25</height>
  <width>25</width>
  <stageParams>
    <boostType>GAB</boostType>
    <minHitRate>9.9500000476837158e-01</minHitRate>
    <maxFalseAlarm>5.0000000000000000e-01</maxFalseAlarm>
    <weightTrimRate>9.4999999999999996e-01</weightTrimRate>
    <maxDepth>1</maxDepth>
    <maxWeakCount>100</maxWeakCount></stageParams>
  <featureParams>
    <maxCatCount>0</maxCatCount>
    <featSize>1</featSize>
    <mode>BASIC</mode></featureParams>
  <stageNum>5</stageNum>
  <stages>
    <!-- stage 0 -->
    <_>
      <maxWeakCount>3</maxWeakCount>
      <stageThreshold>-7.5008118152618408e-01</stageThreshold>
      <weakClassifiers>
        <_>
          <internalNodes>
            0 -1 20 -9.4764027744531631e-03</internalNodes>
          <leafValues>
            5.7496362924575806e-01 -7.6998049020767212e-01</leafValues></_>
        <_>
          <internalNodes>
            0 -1 25 -5.7501052506268024e-03</internalNodes>
          <leafValues>
            6.4267134666442871e-01 -4.7245255112648010e-01</leafValues></_>
        <_>
          <internalNodes>
            0 -1 12 -1.6910425620153546e-04</internalNodes>
          <leafValues>
            4.9235185980796814e-01 -5.0320476293563843e-01</leafValues></_></weakClassifiers></_>
    <!-- stage 1 -->
    <_>
      <maxWeakCount>6</maxWeakCount>
      <stageThreshold>-7.3765218257904053e-01</stageThreshold>
      <weakClassifiers>
        <_>
          <internalNodes>
            0 -1 19 -4.0718331933021545e-02</internalNodes>
          <leafValues>
            6.2105262279510498e-01 -4.0689656138420105e-01</leafValues></_>
        <_>
          <internalNodes>
            0 -1 6 -4.1869711130857468e-02</internalNodes>
          <leafValues>
            -9.5171183347702026e-01 2.1159991621971130e-01</leafValues></_>
        <_>
          <internalNodes>
            0 -1 5 5.4328870028257370e-02</internalNodes>
          <leafValues>
            2.0198446512222290e-01 -8.9405906200408936e-01</leafValues></_>
        <_>
          <internalNodes>
            0 -1 4 3.6566038616001606e-03</internalNodes>
          <leafValues>
            -3.1545382738113403e-01 7.9054677486419678e-01</leafValues></_>
        <_>
          <internalNodes>
            0 -1 2 -4.9319434911012650e-03</internalNodes>
          <leafValues>
            8.2086896896362305e-01 -2.5257635116577148e-01</leafValues></_>
        <_>
          <internalNodes>
            0 -1 31 1.7208974808454514e-02</internalNodes>
          <leafValues>
            -1.0821549594402313e-01 7.8522175550460815e-01</leafValues></_></weakClassifiers></_>
    <!-- stage 2 -->
    <_>
      <maxWeakCount>6</maxWeakCount>
      <stageThreshold>-6.7875009775161743e-01</stageThreshold>
      <weakClassifiers>
        <_>
          <internalNodes>
            0 -1 14 -4.9024391919374466e-03</internalNodes>
          <leafValues>
            4.1379311680793762e-01 -5.7142859697341919e-01</leafValues></_>
        <_>
          <internalNodes>
            0 -1 23 -1.9712161738425493e-03</internalNodes>
          <leafValues>
            6.5355944633483887e-01 -2.7161338925361633e-01</leafValues></_>
        <_>
          <internalNodes>
            0 -1 29 -2.0123363938182592e-03</internalNodes>
          <leafValues>
            4.5655998587608337e-01 -3.3828422427177429e-01</leafValues></_>
        <_>
          <internalNodes>
            0 -1 24 2.1520096808671951e-02</internalNodes>
          <leafValues>
            -2.6851066946983337e-01 6.8234235048294067e-01</leafValues></_>
        <_>
          <internalNodes>
            0 -1 34 -2.2169174626469612e-03</internalNodes>
          <leafValues>
            6.7743843793869019e-01 -2.5927588343620300e-01</leafValues></_>
        <_>
          <internalNodes>
            0 -1 15 -3.9289621636271477e-03</internalNodes>
          <leafValues>
            2.3551844060420990e-01 -8.3649986982345581e-01</leafValues></_></weakClassifiers></_>
    <!-- stage 3 -->
    <_>
      <maxWeakCount>9</maxWeakCount>
      <stageThreshold>-1.0793691873550415e+00</stageThreshold>
      <weakClassifiers>
        <_>
          <internalNodes>
            0 -1 26 -2.1596858277916908e-03</internalNodes>
          <leafValues>
            5.6038647890090942e-01 -2.9516538977622986e-01</leafValues></_>
        <_>
          <internalNodes>
            0 -1 7 8.9230872690677643e-03</internalNodes>
          <leafValues>
            2.0887489616870880e-01 -8.6190426349639893e-01</leafValues></_>
        <_>
          <internalNodes>
            0 -1 33 2.9881279915571213e-03</internalNodes>
          <leafValues>
            -1.8666669726371765e-01 8.6391592025756836e-01</leafValues></_>
        <_>
          <internalNodes>
            0 -1 32 8.7284483015537262e-03</internalNodes>
          <leafValues>
            -3.5555243492126465e-01 5.5562287569046021e-01</leafValues></_>
        <_>
          <internalNodes>
            0 -1 30 -7.4878835584968328e-04</internalNodes>
          <leafValues>
            6.6263943910598755e-01 -1.8549931049346924e-01</leafValues></_>
        <_>
          <internalNodes>
            0 -1 1 -3.0468311160802841e-03</internalNodes>
          <leafValues>
            5.7258057594299316e-01 -2.6543223857879639e-01</leafValues></_>
        <_>
          <internalNodes>
            0 -1 3 2.8860226739197969e-03</internalNodes>
          <leafValues>
            -2.7730378508567810e-01 6.1746662855148315e-01</leafValues></_>
        <_>
          <internalNodes>
            0 -1 13 6.6842108964920044e-02</internalNodes>
          <leafValues>
            -2.3053032159805298e-01 6.2994962930679321e-01</leafValues></_>
        <_>
          <internalNodes>
            0 -1 18 1.5351274050772190e-03</internalNodes>
          <leafValues>
            -3.4764581918716431e-01 3.7390923500061035e-01</leafValues></_></weakClassifiers></_>
    <!-- stage 4 -->
    <_>
      <maxWeakCount>11</maxWeakCount>
      <stageThreshold>-1.1170521974563599e+00</stageThreshold>
      <weakClassifiers>
        <_>
          <internalNodes>
            0 -1 0 -4.7413147985935211e-03</internalNodes>
          <leafValues>
            5.9183675050735474e-01 -2.3687280714511871e-01</leafValues></_>
        <_>
          <internalNodes>
            0 -1 22 -5.1785248797386885e-04</internalNodes>
          <leafValues>
            5.3837782144546509e-01 -2.4158999323844910e-01</leafValues></_>
        <_>
          <internalNodes>
            0 -1 10 3.5575482994318008e-02</internalNodes>
          <leafValues>
            -2.1019862592220306e-01 6.8964940309524536e-01</leafValues></_>
        <_>
          <internalNodes>
            0 -1 21 -4.9853478558361530e-03</internalNodes>
          <leafValues>
            5.1586598157882690e-01 -2.5271987915039062e-01</leafValues></_>
        <_>
          <internalNodes>
            0 -1 8 -4.9857085105031729e-04</internalNodes>
          <leafValues>
            -7.1415215730667114e-01 2.3762305080890656e-01</leafValues></_>
        <_>
          <internalNodes>
            0 -1 16 -4.3368598562665284e-04</internalNodes>
          <leafValues>
            3.4493088722229004e-01 -3.6212328076362610e-01</leafValues></_>
        <_>
          <internalNodes>
            0 -1 11 1.4315753942355514e-03</internalNodes>
          <leafValues>
            -3.1812745332717896e-01 4.3323799967765808e-01</leafValues></_>
        <_>
          <internalNodes>
            0 -1 28 8.2157887518405914e-03</internalNodes>
          <leafValues>
            1.8854694068431854e-01 -8.0452471971511841e-01</leafValues></_>
        <_>
          <internalNodes>
            0 -1 17 2.3607913404703140e-02</internalNodes>
          <leafValues>
            1.6305314004421234e-01 -7.4152272939682007e-01</leafValues></_>
        <_>
          <internalNodes>
            0 -1 27 -1.1303136125206947e-03</internalNodes>
          <leafValues>
            5.0245290994644165e-01 -2.7026382088661194e-01</leafValues></_>
        <_>
          <internalNodes>
            0 -1 9 3.3278082264587283e-04</internalNodes>
          <leafValues>
            1.9034844636917114e-01 -7.4232429265975952e-01</leafValues></_></weakClassifiers></_></stages>
  <features>
    <_>
      <rects>
        <_>
          0 7 2 8 -1.</_>
        <_>
          1 7 1 8 2.</_></rects>
      <tilted>0</tilted></_>
    <_>
      <rects>
        <_>
          0 8 2 8 -1.</_>
        <_>
          1 8 1 8 2.</_></rects>
      <tilted>0</tilted></_>
    <_>
      <rects>
        <_>
          0 9 2 7 -1.</_>
        <_>
          1 9 1 7 2.</_></rects>
      <tilted>0</tilted></_>
    <_>
      <rects>
        <_>
          0 10 2 6 -1.</_>
        <_>
          1 10 1 6 2.</_></rects>
      <tilted>0</tilted></_>
    <_>
      <rects>
        <_>
          0 11 2 4 -1.</_>
        <_>
          1 11 1 4 2.</_></rects>
      <tilted>0</tilted></_>
    <_>
      <rects>
        <_>
          1 10 24 5 -1.</_>
        <_>
          13 10 12 5 2.</_></rects>
      <tilted>0</tilted></_>
    <_>
      <rects>
        <_>
          1 11 22 4 -1.</_>
        <_>
          12 11 11 4 2.</_></rects>
      <tilted>0</tilted></_>
    <_>
      <rects>
        <_>
          2 7 6 8 -1.</_>
        <_>
          5 7 3 8 2.</_></rects>
      <tilted>0</tilted></_>
    <_>
      <rects>
        <_>
          2 12 2 2 -1.</_>
        <_>
          3 12 1 2 2.</_></rects>
      <tilted>0</tilted></_>
    <_>
      <rects>
        <_>
          2 13 2 1 -1.</_>
        <_>
          3 13 1 1 2.</_></rects>
      <tilted>0</tilted></_>
    <_>
      <rects>
        <_>
          3 1 20 6 -1.</_>
        <_>
          3 1 10 3 2.</_>
        <_>
          13 4 10 3 2.</_></rects>
      <tilted>0</tilted></_>
    <_>
      <rects>
        <_>
          3 10 8 2 -1.</_>
        <_>
          3 10 4 1 2.</_>
        <_>
          7 11 4 1 2.</_></rects>
      <tilted>0</tilted></_>
    <_>
      <rects>
        <_>
          4 9 4 2 -1.</_>
        <_>
          6 9 2 2 2.</_></rects>
      <tilted>0</tilted></_>
    <_>
      <rects>
        <_>
          4 16 12 8 -1.</_>
        <_>
          4 20 12 4 2.</_></rects>
      <tilted>0</tilted></_>
    <_>
      <rects>
        <_>
          4 17 18 2 -1.</_>
        <_>
          10 17 6 2 3.</_></rects>
      <tilted>0</tilted></_>
    <_>
      <rects>
        <_>
          5 11 12 8 -1.</_>
        <_>
          5 15 12 4 2.</_></rects>
      <tilted>0</tilted></_>
    <_>
      <rects>
        <_>
          6 6 1 4 -1.</_>
        <_>
          6 8 1 2 2.</_></rects>
      <tilted>0</tilted></_>
    <_>
      <rects>
        <_>
          6 10 18 9 -1.</_>
        <_>
          12 10 6 9 3.</_></rects>
      <tilted>0</tilted></_>
    <_>
      <rects>
        <_>
          7 12 6 3 -1.</_>
        <_>
          9 12 2 3 3.</_></rects>
      <tilted>0</tilted></_>
    <_>
      <rects>
        <_>
          7 13 11 9 -1.</_>
        <_>
          7 16 11 3 3.</_></rects>
      <tilted>0</tilted></_>
    <_>
      <rects>
        <_>
          8 11 8 8 -1.</_>
        <_>
          8 15 8 4 2.</_></rects>
      <tilted>0</tilted></_>
    <_>
      <rects>
        <_>
          9 2 6 6 -1.</_>
        <_>
          9 2 3 3 2.</_>
        <_>
          12 5 3 3 2.</_></rects>
      <tilted>0</tilted></_>
    <_>
      <rects>
        <_>
          10 11 2 2 -1.</_>
        <_>
          10 11 1 1 2.</_>
        <_>
          11 12 1 1 2.</_></rects>
      <tilted>0</tilted></_>
    <_>
      <rects>
        <_>
          10 13 6 2 -1.</_>
        <_>
          10 13 3 1 2.</_>
        <_>
          13 14 3 1 2.</_></rects>
      <tilted>0</tilted></_>
    <_>
      <rects>
        <_>
          10 18 7 4 -1.</_>
        <_>
          10 20 7 2 2.</_></rects>
      <tilted>0</tilted></_>
    <_>
      <rects>
        <_>
          11 15 3 6 -1.</_>
        <_>
          11 17 3 2 3.</_></rects>
      <tilted>0</tilted></_>
    <_>
      <rects>
        <_>
          14 6 4 2 -1.</_>
        <_>
          14 7 4 1 2.</_></rects>
      <tilted>0</tilted></_>
    <_>
      <rects>
        <_>
          14 11 2 4 -1.</_>
        <_>
          14 11 1 2 2.</_>
        <_>
          15 13 1 2 2.</_></rects>
      <tilted>0</tilted></_>
    <_>
      <rects>
        <_>
          14 13 10 2 -1.</_>
        <_>
          19 13 5 2 2.</_></rects>
      <tilted>0</tilted></_>
    <_>
      <rects>
        <_>
          15 8 6 6 -1.</_>
        <_>
          15 8 3 3 2.</_>
        <_>
          18 11 3 3 2.</_></rects>
      <tilted>0</tilted></_>
    <_>
      <rects>
        <_>
          15 11 1 3 -1.</_>
        <_>
          15 12 1 1 3.</_></rects>
      <tilted>0</tilted></_>
    <_>
      <rects>
        <_>
          19 7 6 9 -1.</_>
        <_>
          21 7 2 9 3.</_></rects>
      <tilted>0</tilted></_>
    <_>
      <rects>
        <_>
          19 9 6 7 -1.</_>
        <_>
          21 9 2 7 3.</_></rects>
      <tilted>0</tilted></_>
    <_>
      <rects>
        <_>
          23 11 2 3 -1.</_>
        <_>
          24 11 1 3 2.</_></rects>
      <tilted>0</tilted></_>
    <_>
      <rects>
        <_>
          23 11 2 4 -1.</_>
        <_>
          24 11 1 4 2.</_></rects>
      <tilted>0</tilted></_></features></cascade>
</opencv_storage>
