<?xml version="1.0"?>
<opencv_storage>
<cascade>
  <stageType>BOOST</stageType>
  <featureType>HAAR</featureType>
  <height>20</height>
  <width>20</width>
  <stageParams>
    <boostType>GAB</boostType>
    <minHitRate>9.9500000476837158e-01</minHitRate>
    <maxFalseAlarm>5.0000000000000000e-01</maxFalseAlarm>
    <weightTrimRate>9.4999999999999996e-01</weightTrimRate>
    <maxDepth>1</maxDepth>
    <maxWeakCount>100</maxWeakCount></stageParams>
  <featureParams>
    <maxCatCount>0</maxCatCount>
    <featSize>1</featSize>
    <mode>BASIC</mode></featureParams>
  <stageNum>10</stageNum>
  <stages>
    <!-- stage 0 -->
    <_>
      <maxWeakCount>45</maxWeakCount>
      <stageThreshold>-7.4032616615295410e-01</stageThreshold>
      <weakClassifiers>
        <_>
          <internalNodes>
            0 -1 448 2.8416581917554140e-03</internalNodes>
          <leafValues>
            1.4520202577114105e-01 6.0035842657089233e-01</leafValues></_>
        <_>
          <internalNodes>
            0 -1 53 4.3265189742669463e-04</internalNodes>
          <leafValues>
            -1.9518865644931793e-01 2.8333681821823120e-01</leafValues></_>
        <_>
          <internalNodes>
            0 -1 546 -4.3175509199500084e-03</internalNodes>
          <leafValues>
            2.9218736290931702e-01 -1.6438587009906769e-01</leafValues></_>
        <_>
          <internalNodes>
            0 -1 665 3.4562628716230392e-03</internalNodes>
          <leafValues>
            -1.6989545524120331e-01 2.9926300048828125e-01</leafValues></_>
        <_>
          <internalNodes>
            0 -1 516 -2.5280646514147520e-03</internalNodes>
          <leafValues>
            2.2548040747642517e-01 -2.0689570903778076e-01</leafValues></_>
        <_>
          <internalNodes>
            0 -1 303 -3.0411169864237309e-03</internalNodes>
          <leafValues>
            2.9904454946517944e-01 -1.4762699604034424e-01</leafValues></_>
        <_>
          <internalNodes>
            0 -1 348 -3.5618159454315901e-03</internalNodes>
          <leafValues>
            2.7833530306816101e-01 -1.4382758736610413e-01</leafValues></_>
        <_>
          <internalNodes>
            0 -1 159 -9.8907086066901684e-04</internalNodes>
          <leafValues>
            2.8687223792076111e-01 -1.2299463152885437e-01</leafValues></_>
        <_>
          <internalNodes>
            0 -1 206 4.5572873204946518e-03</internalNodes>
          <leafValues>
            -1.1316584050655365e-01 2.9054594039916992e-01</leafValues></_>
        <_>
          <internalNodes>
            0 -1 282 -2.8117843903601170e-03</internalNodes>
          <leafValues>
            3.8543871045112610e-01 -6.6076770424842834e-02</leafValues></_>
        <_>
          <internalNodes>
            0 -1 520 7.7914231223985553e-04</internalNodes>
          <leafValues>
            -1.6243736445903778e-01 2.0674191415309906e-01</leafValues></_>
        <_>
          <internalNodes>
            0 -1 433 -2.3101296275854111e-02</internalNodes>
          <leafValues>
            -5.6818252801895142e-01 6.9153130054473877e-02</leafValues></_>
        <_>
          <internalNodes>
            0 -1 441 6.6840701038017869e-04</internalNodes>
          <leafValues>
            -1.5530511736869812e-01 2.0203679800033569e-01</leafValues></_>
        <_>
          <internalNodes>
            0 -1 48 -5.8827195316553116e-03</internalNodes>
          <leafValues>
            2.9310327768325806e-01 -1.0055197775363922e-01</leafValues></_>
        <_>
          <internalNodes>
            0 -1 54 5.6243157014250755e-03</internalNodes>
          <leafValues>
            -1.0466884821653366e-01 3.5897815227508545e-01</leafValues></_>
        <_>
          <internalNodes>
            0 -1 678 -2.9268097132444382e-03</internalNodes>
          <leafValues>
            -5.5026280879974365e-01 6.0847271233797073e-02</leafValues></_>
        <_>
          <internalNodes>
            0 -1 44 -1.5590896364301443e-03</internalNodes>
          <leafValues>
            2.3555196821689606e-01 -1.3037487864494324e-01</leafValues></_>
        <_>
          <internalNodes>
            0 -1 455 6.8084807135164738e-03</internalNodes>
          <leafValues>
            4.0908306837081909e-02 -8.9308738708496094e-01</leafValues></_>
        <_>
          <internalNodes>
            0 -1 107 1.8142363987863064e-03</internalNodes>
          <leafValues>
            -1.1531876027584076e-01 2.7214881777763367e-01</leafValues></_>
        <_>
          <internalNodes>
            0 -1 745 -1.7709940671920776e-02</internalNodes>
          <leafValues>
            3.4902638196945190e-01 -8.5619412362575531e-02</leafValues></_>
        <_>
          <internalNodes>
            0 -1 676 -8.2324328832328320e-04</internalNodes>
          <leafValues>
            2.3724631965160370e-01 -1.2635296583175659e-01</leafValues></_>
        <_>
          <internalNodes>
            0 -1 573 -5.2453149110078812e-03</internalNodes>
          <leafValues>
            -7.1819746494293213e-01 4.7849707305431366e-02</leafValues></_>
        <_>
          <internalNodes>
            0 -1 70 -1.9396441057324409e-03</internalNodes>
          <leafValues>
            2.4423353374004364e-01 -1.2335852533578873e-01</leafValues></_>
        <_>
          <internalNodes>
            0 -1 533 -9.3509751604869962e-04</internalNodes>
          <leafValues>
            2.5640714168548584e-01 -1.1074738204479218e-01</leafValues></_>
        <_>
          <internalNodes>
            0 -1 518 -3.9516361430287361e-03</internalNodes>
          <leafValues>
            -5.7902967929840088e-01 5.4964460432529449e-02</leafValues></_>
        <_>
          <internalNodes>
            0 -1 400 6.3033895567059517e-03</internalNodes>
          <leafValues>
            -1.2448986619710922e-01 2.1738891303539276e-01</leafValues></_>
        <_>
          <internalNodes>
            0 -1 739 4.3711764737963676e-03</internalNodes>
          <leafValues>
            -9.6503235399723053e-02 2.7929234504699707e-01</leafValues></_>
        <_>
          <internalNodes>
            0 -1 741 -5.4272999987006187e-03</internalNodes>
          <leafValues>
            -6.9793254137039185e-01 3.9169698953628540e-02</leafValues></_>
        <_>
          <internalNodes>
            0 -1 89 -5.2194092422723770e-03</internalNodes>
          <leafValues>
            -6.9513779878616333e-01 3.3508244901895523e-02</leafValues></_>
        <_>
          <internalNodes>
            0 -1 312 7.0551196113228798e-03</internalNodes>
          <leafValues>
            -1.3603915274143219e-01 2.0902545750141144e-01</leafValues></_>
        <_>
          <internalNodes>
            0 -1 169 -1.3250613119453192e-03</internalNodes>
          <leafValues>
            2.2727023065090179e-01 -1.1702903360128403e-01</leafValues></_>
        <_>
          <internalNodes>
            0 -1 354 -5.6128967553377151e-03</internalNodes>
          <leafValues>
            -6.3418960571289062e-01 4.6490069478750229e-02</leafValues></_>
        <_>
          <internalNodes>
            0 -1 584 5.6754210963845253e-03</internalNodes>
          <leafValues>
            -9.6314765512943268e-02 2.9448127746582031e-01</leafValues></_>
        <_>
          <internalNodes>
            0 -1 631 -3.3418410457670689e-03</internalNodes>
          <leafValues>
            2.3061773180961609e-01 -1.1774045974016190e-01</leafValues></_>
        <_>
          <internalNodes>
            0 -1 379 -1.0667267255485058e-02</internalNodes>
          <leafValues>
            -7.4273669719696045e-01 4.0523696690797806e-02</leafValues></_>
        <_>
          <internalNodes>
            0 -1 414 -4.4217956019565463e-04</internalNodes>
          <leafValues>
            1.8723121285438538e-01 -1.3557446002960205e-01</leafValues></_>
        <_>
          <internalNodes>
            0 -1 657 2.3401612415909767e-03</internalNodes>
          <leafValues>
            -9.5960803329944611e-02 2.7159276604652405e-01</leafValues></_>
        <_>
          <internalNodes>
            0 -1 700 -2.4073326960206032e-02</internalNodes>
          <leafValues>
            5.2809238433837891e-01 -5.3623434156179428e-02</leafValues></_>
        <_>
          <internalNodes>
            0 -1 22 1.9781002774834633e-02</internalNodes>
          <leafValues>
            6.7774049937725067e-02 -4.3135660886764526e-01</leafValues></_>
        <_>
          <internalNodes>
            0 -1 295 -2.2758520208299160e-03</internalNodes>
          <leafValues>
            2.3220390081405640e-01 -1.2477444112300873e-01</leafValues></_>
        <_>
          <internalNodes>
            0 -1 297 6.8228873424232006e-03</internalNodes>
          <leafValues>
            -1.0301429033279419e-01 2.7962580323219299e-01</leafValues></_>
        <_>
          <internalNodes>
            0 -1 302 -4.8581496812403202e-03</internalNodes>
          <leafValues>
            -5.6572359800338745e-01 4.9538511782884598e-02</leafValues></_>
        <_>
          <internalNodes>
            0 -1 232 4.9006976187229156e-03</internalNodes>
          <leafValues>
            2.5521686300635338e-02 -8.3353847265243530e-01</leafValues></_>
        <_>
          <internalNodes>
            0 -1 315 -1.2410568073391914e-02</internalNodes>
          <leafValues>
            -6.1555629968643188e-01 3.6871813237667084e-02</leafValues></_>
        <_>
          <internalNodes>
            0 -1 322 -7.4617541395127773e-04</internalNodes>
          <leafValues>
            2.1621976792812347e-01 -1.6703048348426819e-01</leafValues></_></weakClassifiers></_>
    <!-- stage 1 -->
    <_>
      <maxWeakCount>59</maxWeakCount>
      <stageThreshold>-6.5490007400512695e-01</stageThreshold>
      <weakClassifiers>
        <_>
          <internalNodes>
            0 -1 449 -8.3314999938011169e-03</internalNodes>
          <leafValues>
            -3.1455397605895996e-01 3.8882187008857727e-01</leafValues></_>
        <_>
          <internalNodes>
            0 -1 52 -9.9650688935071230e-04</internalNodes>
          <leafValues>
            2.6027366518974304e-01 -1.3273507356643677e-01</leafValues></_>
        <_>
          <internalNodes>
            0 -1 309 -3.3250753767788410e-03</internalNodes>
          <leafValues>
            2.5535264611244202e-01 -1.3265033066272736e-01</leafValues></_>
        <_>
          <internalNodes>
            0 -1 624 -3.3661615452729166e-04</internalNodes>
          <leafValues>
            1.9578279554843903e-01 -1.7502366006374359e-01</leafValues></_>
        <_>
          <internalNodes>
            0 -1 707 -1.0065801907330751e-03</internalNodes>
          <leafValues>
            2.4949449300765991e-01 -1.2728716433048248e-01</leafValues></_>
        <_>
          <internalNodes>
            0 -1 455 -5.2916258573532104e-03</internalNodes>
          <leafValues>
            -6.0323667526245117e-01 2.7654713019728661e-02</leafValues></_>
        <_>
          <internalNodes>
            0 -1 577 -1.0784888872876763e-03</internalNodes>
          <leafValues>
            2.7133402228355408e-01 -1.2222287058830261e-01</leafValues></_>
        <_>
          <internalNodes>
            0 -1 362 -1.6232408815994859e-03</internalNodes>
          <leafValues>
            1.7777802050113678e-01 -1.4948417246341705e-01</leafValues></_>
        <_>
          <internalNodes>
            0 -1 134 4.9021919257938862e-03</internalNodes>
          <leafValues>
            -1.1607629060745239e-01 2.5084930658340454e-01</leafValues></_>
        <_>
          <internalNodes>
            0 -1 137 -4.9062566831707954e-03</internalNodes>
          <leafValues>
            2.6339837908744812e-01 -9.7408629953861237e-02</leafValues></_>
        <_>
          <internalNodes>
            0 -1 385 -5.7467417791485786e-03</internalNodes>
          <leafValues>
            -3.8374015688896179e-01 6.8162806332111359e-02</leafValues></_>
        <_>
          <internalNodes>
            0 -1 42 6.2710065394639969e-03</internalNodes>
          <leafValues>
            -9.9700205028057098e-02 2.4538490176200867e-01</leafValues></_>
        <_>
          <internalNodes>
            0 -1 446 -6.4294813200831413e-03</internalNodes>
          <leafValues>
            -5.7339751720428467e-01 4.0409907698631287e-02</leafValues></_>
        <_>
          <internalNodes>
            0 -1 288 1.4842115342617035e-02</internalNodes>
          <leafValues>
            7.2257041931152344e-02 -3.6127150058746338e-01</leafValues></_>
        <_>
          <internalNodes>
            0 -1 222 -2.0185224711894989e-03</internalNodes>
          <leafValues>
            2.5154882669448853e-01 -9.5900036394596100e-02</leafValues></_>
        <_>
          <internalNodes>
            0 -1 625 4.5768106356263161e-03</internalNodes>
          <leafValues>
            4.0053501725196838e-02 -6.3785237073898315e-01</leafValues></_>
        <_>
          <internalNodes>
            0 -1 523 -2.4937184061855078e-03</internalNodes>
          <leafValues>
            2.6035511493682861e-01 -1.0736106336116791e-01</leafValues></_>
        <_>
          <internalNodes>
            0 -1 623 -9.0192467905580997e-04</internalNodes>
          <leafValues>
            2.0873638987541199e-01 -1.1623380333185196e-01</leafValues></_>
        <_>
          <internalNodes>
            0 -1 561 -6.9145846646279097e-04</internalNodes>
          <leafValues>
            2.0656394958496094e-01 -1.2735632061958313e-01</leafValues></_>
        <_>
          <internalNodes>
            0 -1 658 -7.1454606950283051e-03</internalNodes>
          <leafValues>
            -4.0657469630241394e-01 6.9229684770107269e-02</leafValues></_>
        <_>
          <internalNodes>
            0 -1 90 -2.5453709531575441e-03</internalNodes>
          <leafValues>
            -4.6433126926422119e-01 5.2213530987501144e-02</leafValues></_>
        <_>
          <internalNodes>
            0 -1 141 7.9013500362634659e-04</internalNodes>
          <leafValues>
            -1.3504366576671600e-01 1.8258953094482422e-01</leafValues></_>
        <_>
          <internalNodes>
            0 -1 69 -9.1150111984461546e-04</internalNodes>
          <leafValues>
            1.9300541281700134e-01 -1.2024885416030884e-01</leafValues></_>
        <_>
          <internalNodes>
            0 -1 479 -2.2690638434141874e-03</internalNodes>
          <leafValues>
            2.0498856902122498e-01 -1.0771230608224869e-01</leafValues></_>
        <_>
          <internalNodes>
            0 -1 721 -3.7978589534759521e-03</internalNodes>
          <leafValues>
            -4.7597721219062805e-01 5.2449371665716171e-02</leafValues></_>
        <_>
          <internalNodes>
            0 -1 181 -6.8362816236913204e-03</internalNodes>
          <leafValues>
            -4.2694729566574097e-01 4.8700660467147827e-02</leafValues></_>
        <_>
          <internalNodes>
            0 -1 458 9.3554668128490448e-03</internalNodes>
          <leafValues>
            2.9433520510792732e-02 -7.1320158243179321e-01</leafValues></_>
        <_>
          <internalNodes>
            0 -1 740 3.4645516425371170e-03</internalNodes>
          <leafValues>
            -1.0801354795694351e-01 2.0598386228084564e-01</leafValues></_>
        <_>
          <internalNodes>
            0 -1 733 -3.4951888956129551e-03</internalNodes>
          <leafValues>
            2.3429256677627563e-01 -9.4639681279659271e-02</leafValues></_>
        <_>
          <internalNodes>
            0 -1 368 4.1109196841716766e-02</internalNodes>
          <leafValues>
            4.9846645444631577e-02 -4.2639905214309692e-01</leafValues></_>
        <_>
          <internalNodes>
            0 -1 567 -9.0594524517655373e-03</internalNodes>
          <leafValues>
            -4.7956916689872742e-01 4.4732224196195602e-02</leafValues></_>
        <_>
          <internalNodes>
            0 -1 513 -6.2142955139279366e-03</internalNodes>
          <leafValues>
            -4.0078735351562500e-01 5.7946518063545227e-02</leafValues></_>
        <_>
          <internalNodes>
            0 -1 335 2.1552047692239285e-03</internalNodes>
          <leafValues>
            -8.8456369936466217e-02 2.6851487159729004e-01</leafValues></_>
        <_>
          <internalNodes>
            0 -1 332 -1.9953162409365177e-03</internalNodes>
          <leafValues>
            2.2741851210594177e-01 -9.5776326954364777e-02</leafValues></_>
        <_>
          <internalNodes>
            0 -1 442 -1.0450604371726513e-02</internalNodes>
          <leafValues>
            -5.4895514249801636e-01 4.5227494090795517e-02</leafValues></_>
        <_>
          <internalNodes>
            0 -1 533 -1.4223135076463223e-03</internalNodes>
          <leafValues>
            2.6263317465782166e-01 -9.4684302806854248e-02</leafValues></_>
        <_>
          <internalNodes>
            0 -1 490 -1.5232927398756146e-03</internalNodes>
          <leafValues>
            2.4748153984546661e-01 -9.3774110078811646e-02</leafValues></_>
        <_>
          <internalNodes>
            0 -1 328 4.1298521682620049e-03</internalNodes>
          <leafValues>
            -1.4579586684703827e-01 1.6828373074531555e-01</leafValues></_>
        <_>
          <internalNodes>
            0 -1 351 4.2320801876485348e-03</internalNodes>
          <leafValues>
            3.3298511058092117e-02 -6.7069160938262939e-01</leafValues></_>
        <_>
          <internalNodes>
            0 -1 83 5.3549231961369514e-04</internalNodes>
          <leafValues>
            -1.3944002985954285e-01 1.6576114296913147e-01</leafValues></_>
        <_>
          <internalNodes>
            0 -1 650 3.5754805430769920e-03</internalNodes>
          <leafValues>
            4.4234834611415863e-02 -5.0103104114532471e-01</leafValues></_>
        <_>
          <internalNodes>
            0 -1 602 -4.5056687667965889e-03</internalNodes>
          <leafValues>
            2.5312110781669617e-01 -1.1230685561895370e-01</leafValues></_>
        <_>
          <internalNodes>
            0 -1 668 -4.1554253548383713e-03</internalNodes>
          <leafValues>
            -6.6183036565780640e-01 3.5602424293756485e-02</leafValues></_>
        <_>
          <internalNodes>
            0 -1 353 3.3251089043915272e-03</internalNodes>
          <leafValues>
            -1.1473581194877625e-01 2.1433055400848389e-01</leafValues></_>
        <_>
          <internalNodes>
            0 -1 45 -1.9355362746864557e-03</internalNodes>
          <leafValues>
            1.9773599505424500e-01 -1.1705885082483292e-01</leafValues></_>
        <_>
          <internalNodes>
            0 -1 272 -4.4031362049281597e-03</internalNodes>
          <leafValues>
            -7.4010652303695679e-01 3.2458387315273285e-02</leafValues></_>
        <_>
          <internalNodes>
            0 -1 4 3.4931242465972900e-02</internalNodes>
          <leafValues>
            -3.9045624434947968e-02 6.3571751117706299e-01</leafValues></_>
        <_>
          <internalNodes>
            0 -1 62 -6.9787865504622459e-03</internalNodes>
          <leafValues>
            1.9299921393394470e-01 -1.1739797890186310e-01</leafValues></_>
        <_>
          <internalNodes>
            0 -1 708 -1.1754240840673447e-03</internalNodes>
          <leafValues>
            2.6371625065803528e-01 -8.4286577999591827e-02</leafValues></_>
        <_>
          <internalNodes>
            0 -1 28 -2.9037356376647949e-02</internalNodes>
          <leafValues>
            -6.3096857070922852e-01 3.5725343972444534e-02</leafValues></_>
        <_>
          <internalNodes>
            0 -1 265 -9.1000233078375459e-04</internalNodes>
          <leafValues>
            2.0670913159847260e-01 -1.0805765539407730e-01</leafValues></_>
        <_>
          <internalNodes>
            0 -1 273 1.6309032216668129e-03</internalNodes>
          <leafValues>
            -9.4559647142887115e-02 2.1773599088191986e-01</leafValues></_>
        <_>
          <internalNodes>
            0 -1 229 -6.1928397044539452e-03</internalNodes>
          <leafValues>
            -6.5735870599746704e-01 3.5061489790678024e-02</leafValues></_>
        <_>
          <internalNodes>
            0 -1 249 -4.8486208543181419e-03</internalNodes>
          <leafValues>
            2.0991995930671692e-01 -9.8612204194068909e-02</leafValues></_>
        <_>
          <internalNodes>
            0 -1 345 7.1955570019781590e-03</internalNodes>
          <leafValues>
            -8.9856795966625214e-02 2.5081494450569153e-01</leafValues></_>
        <_>
          <internalNodes>
            0 -1 742 3.9553735405206680e-03</internalNodes>
          <leafValues>
            3.7305921316146851e-02 -5.9679967164993286e-01</leafValues></_>
        <_>
          <internalNodes>
            0 -1 216 -9.2713395133614540e-04</internalNodes>
          <leafValues>
            2.0040585100650787e-01 -1.0555757582187653e-01</leafValues></_>
        <_>
          <internalNodes>
            0 -1 598 -5.0322646275162697e-03</internalNodes>
          <leafValues>
            -4.9439886212348938e-01 4.2003072798252106e-02</leafValues></_>
        <_>
          <internalNodes>
            0 -1 675 1.3801314635202289e-03</internalNodes>
          <leafValues>
            -9.2957213521003723e-02 2.3214152455329895e-01</leafValues></_></weakClassifiers></_>
    <!-- stage 2 -->
    <_>
      <maxWeakCount>73</maxWeakCount>
      <stageThreshold>-6.5978515148162842e-01</stageThreshold>
      <weakClassifiers>
        <_>
          <internalNodes>
            0 -1 86 1.7086481675505638e-03</internalNodes>
          <leafValues>
            2.1502889692783356e-01 5.4432988166809082e-01</leafValues></_>
        <_>
          <internalNodes>
            0 -1 289 1.8864885205402970e-03</internalNodes>
          <leafValues>
            -9.8109573125839233e-02 2.6986843347549438e-01</leafValues></_>
        <_>
          <internalNodes>
            0 -1 623 -1.0745925828814507e-03</internalNodes>
          <leafValues>
            2.2912286221981049e-01 -1.2293809652328491e-01</leafValues></_>
        <_>
          <internalNodes>
            0 -1 671 -8.9886747300624847e-03</internalNodes>
          <leafValues>
            2.8854796290397644e-01 -1.1863250285387039e-01</leafValues></_>
        <_>
          <internalNodes>
            0 -1 356 5.3683621808886528e-03</internalNodes>
          <leafValues>
            -1.1359795182943344e-01 2.8013646602630615e-01</leafValues></_>
        <_>
          <internalNodes>
            0 -1 446 6.4881220459938049e-03</internalNodes>
          <leafValues>
            4.1517812758684158e-02 -5.9672433137893677e-01</leafValues></_>
        <_>
          <internalNodes>
            0 -1 459 -6.6260731546208262e-04</internalNodes>
          <leafValues>
            1.6740575432777405e-01 -1.5916033089160919e-01</leafValues></_>
        <_>
          <internalNodes>
            0 -1 12 -3.4841699525713921e-03</internalNodes>
          <leafValues>
            2.2192290425300598e-01 -1.0047820210456848e-01</leafValues></_>
        <_>
          <internalNodes>
            0 -1 139 -1.0814216220751405e-03</internalNodes>
          <leafValues>
            2.4232332408428192e-01 -9.1285578906536102e-02</leafValues></_>
        <_>
          <internalNodes>
            0 -1 358 -8.2968082278966904e-04</internalNodes>
          <leafValues>
            1.6344448924064636e-01 -1.2621513009071350e-01</leafValues></_>
        <_>
          <internalNodes>
            0 -1 11 2.1896283142268658e-03</internalNodes>
          <leafValues>
            -9.7869105637073517e-02 2.0706410706043243e-01</leafValues></_>
        <_>
          <internalNodes>
            0 -1 472 3.5862629301846027e-03</internalNodes>
          <leafValues>
            6.5338619053363800e-02 -3.1859144568443298e-01</leafValues></_>
        <_>
          <internalNodes>
            0 -1 294 3.7744091823697090e-03</internalNodes>
          <leafValues>
            -9.2740692198276520e-02 2.4787773191928864e-01</leafValues></_>
        <_>
          <internalNodes>
            0 -1 0 -7.2734415531158447e-01</internalNodes>
          <leafValues>
            6.4417535066604614e-01 -3.1361013650894165e-02</leafValues></_>
        <_>
          <internalNodes>
            0 -1 560 3.7890247767791152e-04</internalNodes>
          <leafValues>
            -1.0744645446538925e-01 1.8102663755416870e-01</leafValues></_>
        <_>
          <internalNodes>
            0 -1 552 2.2596232593059540e-03</internalNodes>
          <leafValues>
            -1.0902773588895798e-01 1.8938401341438293e-01</leafValues></_>
        <_>
          <internalNodes>
            0 -1 82 4.7521376982331276e-03</internalNodes>
          <leafValues>
            -9.5362067222595215e-02 2.0240035653114319e-01</leafValues></_>
        <_>
          <internalNodes>
            0 -1 321 -8.2811643369495869e-04</internalNodes>
          <leafValues>
            1.9624616205692291e-01 -1.1754962056875229e-01</leafValues></_>
        <_>
          <internalNodes>
            0 -1 632 5.8277677744626999e-03</internalNodes>
          <leafValues>
            -8.0475501716136932e-02 2.5699606537818909e-01</leafValues></_>
        <_>
          <internalNodes>
            0 -1 590 -5.3600827232003212e-04</internalNodes>
          <leafValues>
            2.0296739041805267e-01 -1.0097981244325638e-01</leafValues></_>
        <_>
          <internalNodes>
            0 -1 697 -2.7492480352520943e-02</internalNodes>
          <leafValues>
            2.5222614407539368e-01 -7.8783452510833740e-02</leafValues></_>
        <_>
          <internalNodes>
            0 -1 656 -9.2624928802251816e-03</internalNodes>
          <leafValues>
            -4.0459662675857544e-01 6.0772936791181564e-02</leafValues></_>
        <_>
          <internalNodes>
            0 -1 450 -1.0307081043720245e-02</internalNodes>
          <leafValues>
            -4.0942201018333435e-01 4.5772626996040344e-02</leafValues></_>
        <_>
          <internalNodes>
            0 -1 91 1.6899389447644353e-04</internalNodes>
          <leafValues>
            -1.4627799391746521e-01 1.4088994264602661e-01</leafValues></_>
        <_>
          <internalNodes>
            0 -1 161 2.0088557153940201e-02</internalNodes>
          <leafValues>
            -3.5976585000753403e-02 5.1806062459945679e-01</leafValues></_>
        <_>
          <internalNodes>
            0 -1 183 8.3324464503675699e-04</internalNodes>
          <leafValues>
            -1.2038522958755493e-01 1.6199117898941040e-01</leafValues></_>
        <_>
          <internalNodes>
            0 -1 296 8.7466975674033165e-03</internalNodes>
          <leafValues>
            -6.9056473672389984e-02 3.0499857664108276e-01</leafValues></_>
        <_>
          <internalNodes>
            0 -1 463 -2.5466373190283775e-02</internalNodes>
          <leafValues>
            -5.3021275997161865e-01 4.3081082403659821e-02</leafValues></_>
        <_>
          <internalNodes>
            0 -1 118 -3.6063473671674728e-02</internalNodes>
          <leafValues>
            3.4206900000572205e-01 -5.8877646923065186e-02</leafValues></_>
        <_>
          <internalNodes>
            0 -1 325 -1.5887350309640169e-03</internalNodes>
          <leafValues>
            2.7253970503807068e-01 -6.4334183931350708e-02</leafValues></_>
        <_>
          <internalNodes>
            0 -1 565 -2.1771425381302834e-03</internalNodes>
          <leafValues>
            2.2503942251205444e-01 -8.6728490889072418e-02</leafValues></_>
        <_>
          <internalNodes>
            0 -1 386 1.7070382833480835e-02</internalNodes>
          <leafValues>
            5.0033006817102432e-02 -4.3166235089302063e-01</leafValues></_>
        <_>
          <internalNodes>
            0 -1 378 -6.5313256345689297e-04</internalNodes>
          <leafValues>
            1.5893000364303589e-01 -1.3136003911495209e-01</leafValues></_>
        <_>
          <internalNodes>
            0 -1 401 1.2883298099040985e-02</internalNodes>
          <leafValues>
            5.1420584321022034e-02 -3.8806688785552979e-01</leafValues></_>
        <_>
          <internalNodes>
            0 -1 110 -2.8421434108167887e-03</internalNodes>
          <leafValues>
            2.4745187163352966e-01 -7.0339076220989227e-02</leafValues></_>
        <_>
          <internalNodes>
            0 -1 221 -6.2271039932966232e-03</internalNodes>
          <leafValues>
            -6.3863337039947510e-01 2.8842488303780556e-02</leafValues></_>
        <_>
          <internalNodes>
            0 -1 410 -1.0102267842739820e-03</internalNodes>
          <leafValues>
            2.1063315868377686e-01 -8.6449839174747467e-02</leafValues></_>
        <_>
          <internalNodes>
            0 -1 596 -5.5354961659759283e-04</internalNodes>
          <leafValues>
            1.6918697953224182e-01 -1.2213481962680817e-01</leafValues></_>
        <_>
          <internalNodes>
            0 -1 63 5.2326321601867676e-03</internalNodes>
          <leafValues>
            3.5435117781162262e-02 -5.2282303571701050e-01</leafValues></_>
        <_>
          <internalNodes>
            0 -1 113 2.9902332462370396e-03</internalNodes>
          <leafValues>
            -8.3748608827590942e-02 2.1677768230438232e-01</leafValues></_>
        <_>
          <internalNodes>
            0 -1 68 -5.5155297741293907e-04</internalNodes>
          <leafValues>
            1.9747278094291687e-01 -9.4490066170692444e-02</leafValues></_>
        <_>
          <internalNodes>
            0 -1 65 -6.5909873228520155e-04</internalNodes>
          <leafValues>
            1.9713099300861359e-01 -9.8755151033401489e-02</leafValues></_>
        <_>
          <internalNodes>
            0 -1 162 -7.6162791810929775e-03</internalNodes>
          <leafValues>
            2.0509946346282959e-01 -9.1961719095706940e-02</leafValues></_>
        <_>
          <internalNodes>
            0 -1 461 -4.4700587168335915e-03</internalNodes>
          <leafValues>
            2.2283905744552612e-01 -7.9882264137268066e-02</leafValues></_>
        <_>
          <internalNodes>
            0 -1 457 6.7944959737360477e-03</internalNodes>
          <leafValues>
            3.6560442298650742e-02 -5.4587209224700928e-01</leafValues></_>
        <_>
          <internalNodes>
            0 -1 330 -6.3610546290874481e-02</internalNodes>
          <leafValues>
            -3.2381296157836914e-01 5.9803195297718048e-02</leafValues></_>
        <_>
          <internalNodes>
            0 -1 501 8.5041992133483291e-04</internalNodes>
          <leafValues>
            -1.1952231824398041e-01 1.5307110548019409e-01</leafValues></_>
        <_>
          <internalNodes>
            0 -1 181 9.6327504143118858e-03</internalNodes>
          <leafValues>
            3.5517018288373947e-02 -5.8966416120529175e-01</leafValues></_>
        <_>
          <internalNodes>
            0 -1 263 -1.0991440154612064e-02</internalNodes>
          <leafValues>
            -7.2053849697113037e-01 2.4442741647362709e-02</leafValues></_>
        <_>
          <internalNodes>
            0 -1 349 5.8102346956729889e-03</internalNodes>
          <leafValues>
            -8.3704650402069092e-02 2.2680702805519104e-01</leafValues></_>
        <_>
          <internalNodes>
            0 -1 555 -6.2752310186624527e-03</internalNodes>
          <leafValues>
            -6.3630145788192749e-01 2.8989227488636971e-02</leafValues></_>
        <_>
          <internalNodes>
            0 -1 78 -7.1064062416553497e-02</internalNodes>
          <leafValues>
            -2.9470527172088623e-01 6.0824096202850342e-02</leafValues></_>
        <_>
          <internalNodes>
            0 -1 168 1.4570784987881780e-03</internalNodes>
          <leafValues>
            -9.6578687429428101e-02 1.9665609300136566e-01</leafValues></_>
        <_>
          <internalNodes>
            0 -1 341 1.4992345822975039e-03</internalNodes>
          <leafValues>
            -1.2618400156497955e-01 1.4865122735500336e-01</leafValues></_>
        <_>
          <internalNodes>
            0 -1 702 -3.7910528481006622e-03</internalNodes>
          <leafValues>
            2.1412402391433716e-01 -8.4218777716159821e-02</leafValues></_>
        <_>
          <internalNodes>
            0 -1 149 -1.7160224961116910e-03</internalNodes>
          <leafValues>
            1.9952131807804108e-01 -8.8798210024833679e-02</leafValues></_>
        <_>
          <internalNodes>
            0 -1 250 5.5192108266055584e-04</internalNodes>
          <leafValues>
            -1.0339317470788956e-01 2.1519984304904938e-01</leafValues></_>
        <_>
          <internalNodes>
            0 -1 251 -6.1112071853131056e-04</internalNodes>
          <leafValues>
            1.8036288022994995e-01 -1.1653665453195572e-01</leafValues></_>
        <_>
          <internalNodes>
            0 -1 470 5.7570007629692554e-03</internalNodes>
          <leafValues>
            4.9002185463905334e-02 -4.4279122352600098e-01</leafValues></_>
        <_>
          <internalNodes>
            0 -1 324 6.0682099312543869e-02</internalNodes>
          <leafValues>
            5.3788255900144577e-02 -3.2645383477210999e-01</leafValues></_>
        <_>
          <internalNodes>
            0 -1 585 1.1825528927147388e-03</internalNodes>
          <leafValues>
            -7.7468529343605042e-02 2.3950880765914917e-01</leafValues></_>
        <_>
          <internalNodes>
            0 -1 104 8.8291172869503498e-04</internalNodes>
          <leafValues>
            -1.2367279827594757e-01 1.5425015985965729e-01</leafValues></_>
        <_>
          <internalNodes>
            0 -1 89 -2.0049787126481533e-03</internalNodes>
          <leafValues>
            -2.6494523882865906e-01 6.7930877208709717e-02</leafValues></_>
        <_>
          <internalNodes>
            0 -1 122 -1.8976241117343307e-03</internalNodes>
          <leafValues>
            1.9738836586475372e-01 -9.0005420148372650e-02</leafValues></_>
        <_>
          <internalNodes>
            0 -1 223 -1.1655855923891068e-03</internalNodes>
          <leafValues>
            1.5938368439674377e-01 -1.1079680919647217e-01</leafValues></_>
        <_>
          <internalNodes>
            0 -1 720 -2.7862028218805790e-03</internalNodes>
          <leafValues>
            1.6990856826305389e-01 -1.0219715535640717e-01</leafValues></_>
        <_>
          <internalNodes>
            0 -1 145 -5.1570930518209934e-03</internalNodes>
          <leafValues>
            -5.2861297130584717e-01 3.7398785352706909e-02</leafValues></_>
        <_>
          <internalNodes>
            0 -1 715 -2.6971980696544051e-04</internalNodes>
          <leafValues>
            1.4432764053344727e-01 -1.2661482393741608e-01</leafValues></_>
        <_>
          <internalNodes>
            0 -1 681 -5.7363614439964294e-02</internalNodes>
          <leafValues>
            3.3727934956550598e-01 -5.1663924008607864e-02</leafValues></_>
        <_>
          <internalNodes>
            0 -1 311 7.6511898078024387e-03</internalNodes>
          <leafValues>
            -9.8982743918895721e-02 1.7758350074291229e-01</leafValues></_>
        <_>
          <internalNodes>
            0 -1 34 -1.1099194176495075e-02</internalNodes>
          <leafValues>
            2.0137371122837067e-01 -9.5622844994068146e-02</leafValues></_>
        <_>
          <internalNodes>
            0 -1 467 -4.4535542838275433e-04</internalNodes>
          <leafValues>
            1.4388529956340790e-01 -1.3307414948940277e-01</leafValues></_>
        <_>
          <internalNodes>
            0 -1 76 -2.8936518356204033e-03</internalNodes>
          <leafValues>
            2.4672894179821014e-01 -8.3993807435035706e-02</leafValues></_></weakClassifiers></_>
    <!-- stage 3 -->
    <_>
      <maxWeakCount>77</maxWeakCount>
      <stageThreshold>-6.0005259513854980e-01</stageThreshold>
      <weakClassifiers>
        <_>
          <internalNodes>
            0 -1 513 -1.3733368366956711e-02</internalNodes>
          <leafValues>
            -6.2962961196899414e-01 3.5298565030097961e-01</leafValues></_>
        <_>
          <internalNodes>
            0 -1 182 -2.5211055763065815e-03</internalNodes>
          <leafValues>
            2.6781532168388367e-01 -6.7716427147388458e-02</leafValues></_>
        <_>
          <internalNodes>
            0 -1 594 -5.1697697490453720e-03</internalNodes>
          <leafValues>
            2.9559972882270813e-01 -7.4961520731449127e-02</leafValues></_>
        <_>
          <internalNodes>
            0 -1 398 -3.3278446644544601e-03</internalNodes>
          <leafValues>
            -2.3444221913814545e-01 7.6525241136550903e-02</leafValues></_>
        <_>
          <internalNodes>
            0 -1 225 -2.5723807513713837e-02</internalNodes>
          <leafValues>
            2.5403603911399841e-01 -8.4405682981014252e-02</leafValues></_>
        <_>
          <internalNodes>
            0 -1 469 -5.7781608775258064e-03</internalNodes>
          <leafValues>
            -6.8778681755065918e-01 1.5786873176693916e-02</leafValues></_>
        <_>
          <internalNodes>
            0 -1 51 -8.4970763418823481e-04</internalNodes>
          <leafValues>
            1.9702984392642975e-01 -1.0628681629896164e-01</leafValues></_>
        <_>
          <internalNodes>
            0 -1 55 5.9127951972186565e-03</internalNodes>
          <leafValues>
            -7.3626019060611725e-02 2.4915854632854462e-01</leafValues></_>
        <_>
          <internalNodes>
            0 -1 299 2.9355599544942379e-03</internalNodes>
          <leafValues>
            3.5984441637992859e-02 -4.5068517327308655e-01</leafValues></_>
        <_>
          <internalNodes>
            0 -1 508 8.2852877676486969e-04</internalNodes>
          <leafValues>
            -9.2963278293609619e-02 1.9158543646335602e-01</leafValues></_>
        <_>
          <internalNodes>
            0 -1 205 -6.6583137959241867e-03</internalNodes>
          <leafValues>
            2.8631916642189026e-01 -6.7106477916240692e-02</leafValues></_>
        <_>
          <internalNodes>
            0 -1 439 -7.3561206459999084e-02</internalNodes>
          <leafValues>
            -3.5991111397743225e-01 5.3148303180932999e-02</leafValues></_>
        <_>
          <internalNodes>
            0 -1 426 -1.2065354734659195e-02</internalNodes>
          <leafValues>
            -4.0369084477424622e-01 4.9159068614244461e-02</leafValues></_>
        <_>
          <internalNodes>
            0 -1 77 -4.0358278783969581e-04</internalNodes>
          <leafValues>
            1.3338340818881989e-01 -1.4647673070430756e-01</leafValues></_>
        <_>
          <internalNodes>
            0 -1 627 4.8366503324359655e-04</internalNodes>
          <leafValues>
            -1.3503374159336090e-01 1.3649848103523254e-01</leafValues></_>
        <_>
          <internalNodes>
            0 -1 514 -1.2605234514921904e-03</internalNodes>
          <leafValues>
            1.9323807954788208e-01 -1.1247329413890839e-01</leafValues></_>
        <_>
          <internalNodes>
            0 -1 526 3.5677715204656124e-03</internalNodes>
          <leafValues>
            4.6412181109189987e-02 -5.2529251575469971e-01</leafValues></_>
        <_>
          <internalNodes>
            0 -1 532 -6.3292571576312184e-04</internalNodes>
          <leafValues>
            1.7242509126663208e-01 -1.1410513520240784e-01</leafValues></_>
        <_>
          <internalNodes>
            0 -1 618 -2.3126662708818913e-03</internalNodes>
          <leafValues>
            1.4148202538490295e-01 -1.3713364303112030e-01</leafValues></_>
        <_>
          <internalNodes>
            0 -1 709 -4.9631932051852345e-04</internalNodes>
          <leafValues>
            1.7189866304397583e-01 -1.1586844176054001e-01</leafValues></_>
        <_>
          <internalNodes>
            0 -1 384 -6.7409928888082504e-03</internalNodes>
          <leafValues>
            -7.3702168464660645e-01 2.4301612749695778e-02</leafValues></_>
        <_>
          <internalNodes>
            0 -1 5 1.2300712987780571e-02</internalNodes>
          <leafValues>
            -5.6545630097389221e-02 3.3749675750732422e-01</leafValues></_>
        <_>
          <internalNodes>
            0 -1 234 3.4865038469433784e-03</internalNodes>
          <leafValues>
            -8.2412429153919220e-02 2.2723187506198883e-01</leafValues></_>
        <_>
          <internalNodes>
            0 -1 88 -7.3149939998984337e-03</internalNodes>
          <leafValues>
            -7.9190236330032349e-01 2.6994153857231140e-02</leafValues></_>
        <_>
          <internalNodes>
            0 -1 19 2.7269772253930569e-03</internalNodes>
          <leafValues>
            3.8707718253135681e-02 -3.9841079711914062e-01</leafValues></_>
        <_>
          <internalNodes>
            0 -1 326 1.7802402377128601e-02</internalNodes>
          <leafValues>
            -3.9060037583112717e-02 5.1028233766555786e-01</leafValues></_>
        <_>
          <internalNodes>
            0 -1 388 2.0349837839603424e-02</internalNodes>
          <leafValues>
            4.7299243509769440e-02 -4.4469165802001953e-01</leafValues></_>
        <_>
          <internalNodes>
            0 -1 460 3.7138198968023062e-03</internalNodes>
          <leafValues>
            -7.6299063861370087e-02 2.5811570882797241e-01</leafValues></_>
        <_>
          <internalNodes>
            0 -1 284 1.1747917160391808e-03</internalNodes>
          <leafValues>
            -1.5494331717491150e-01 1.2640632688999176e-01</leafValues></_>
        <_>
          <internalNodes>
            0 -1 693 6.5447660163044930e-03</internalNodes>
          <leafValues>
            3.2377537339925766e-02 -6.3169521093368530e-01</leafValues></_>
        <_>
          <internalNodes>
            0 -1 684 8.1553764175623655e-04</internalNodes>
          <leafValues>
            -1.1395910382270813e-01 1.6791406273841858e-01</leafValues></_>
        <_>
          <internalNodes>
            0 -1 610 -2.6944110868498683e-04</internalNodes>
          <leafValues>
            1.4547000825405121e-01 -1.2693120539188385e-01</leafValues></_>
        <_>
          <internalNodes>
            0 -1 383 1.6287323087453842e-02</internalNodes>
          <leafValues>
            2.6141026988625526e-02 -7.7409684658050537e-01</leafValues></_>
        <_>
          <internalNodes>
            0 -1 475 4.5975986868143082e-03</internalNodes>
          <leafValues>
            2.3793293163180351e-02 -6.3833165168762207e-01</leafValues></_>
        <_>
          <internalNodes>
            0 -1 434 -4.1611880064010620e-02</internalNodes>
          <leafValues>
            -6.0490125417709351e-01 2.7200311422348022e-02</leafValues></_>
        <_>
          <internalNodes>
            0 -1 550 -2.1644518710672855e-03</internalNodes>
          <leafValues>
            1.6808028519153595e-01 -1.0372031480073929e-01</leafValues></_>
        <_>
          <internalNodes>
            0 -1 505 -1.4847109094262123e-02</internalNodes>
          <leafValues>
            2.0192669332027435e-01 -9.2767514288425446e-02</leafValues></_>
        <_>
          <internalNodes>
            0 -1 334 5.1745469681918621e-04</internalNodes>
          <leafValues>
            -1.1492764204740524e-01 1.5771204233169556e-01</leafValues></_>
        <_>
          <internalNodes>
            0 -1 81 -3.4786078613251448e-03</internalNodes>
          <leafValues>
            1.8281096220016479e-01 -9.9505126476287842e-02</leafValues></_>
        <_>
          <internalNodes>
            0 -1 578 4.1873306035995483e-03</internalNodes>
          <leafValues>
            4.8939384520053864e-02 -4.0973994135856628e-01</leafValues></_>
        <_>
          <internalNodes>
            0 -1 352 -3.0580325983464718e-03</internalNodes>
          <leafValues>
            2.0720544457435608e-01 -8.7091259658336639e-02</leafValues></_>
        <_>
          <internalNodes>
            0 -1 274 -4.7379240393638611e-02</internalNodes>
          <leafValues>
            -7.1108740568161011e-01 2.6813980191946030e-02</leafValues></_>
        <_>
          <internalNodes>
            0 -1 599 3.5701927263289690e-03</internalNodes>
          <leafValues>
            3.3686723560094833e-02 -5.4744690656661987e-01</leafValues></_>
        <_>
          <internalNodes>
            0 -1 680 3.6083669401705265e-03</internalNodes>
          <leafValues>
            2.9832711443305016e-02 -5.5438649654388428e-01</leafValues></_>
        <_>
          <internalNodes>
            0 -1 644 -8.5906637832522392e-04</internalNodes>
          <leafValues>
            1.8058653175830841e-01 -1.1055730283260345e-01</leafValues></_>
        <_>
          <internalNodes>
            0 -1 483 3.3174259588122368e-03</internalNodes>
          <leafValues>
            -8.7551213800907135e-02 2.0577262341976166e-01</leafValues></_>
        <_>
          <internalNodes>
            0 -1 674 3.4217452630400658e-03</internalNodes>
          <leafValues>
            -5.8956094086170197e-02 2.9762011766433716e-01</leafValues></_>
        <_>
          <internalNodes>
            0 -1 732 -7.1916387241799384e-05</internalNodes>
          <leafValues>
            1.4345011115074158e-01 -1.3078941404819489e-01</leafValues></_>
        <_>
          <internalNodes>
            0 -1 24 3.6670477129518986e-03</internalNodes>
          <leafValues>
            6.9995544850826263e-02 -2.7408379316329956e-01</leafValues></_>
        <_>
          <internalNodes>
            0 -1 31 -1.2230084836483002e-01</internalNodes>
          <leafValues>
            3.4454861283302307e-01 -5.8488063514232635e-02</leafValues></_>
        <_>
          <internalNodes>
            0 -1 696 6.1026448383927345e-03</internalNodes>
          <leafValues>
            -5.8499038219451904e-02 2.9388901591300964e-01</leafValues></_>
        <_>
          <internalNodes>
            0 -1 257 7.1113626472651958e-04</internalNodes>
          <leafValues>
            1.2052323669195175e-01 -1.4942936599254608e-01</leafValues></_>
        <_>
          <internalNodes>
            0 -1 66 -2.2433898411691189e-03</internalNodes>
          <leafValues>
            1.6628211736679077e-01 -1.1070250719785690e-01</leafValues></_>
        <_>
          <internalNodes>
            0 -1 286 -4.1425465606153011e-03</internalNodes>
          <leafValues>
            3.4216994047164917e-01 -4.9501199275255203e-02</leafValues></_>
        <_>
          <internalNodes>
            0 -1 207 -2.5553619489073753e-03</internalNodes>
          <leafValues>
            -3.6851036548614502e-01 5.1876667886972427e-02</leafValues></_>
        <_>
          <internalNodes>
            0 -1 688 1.1387506499886513e-02</internalNodes>
          <leafValues>
            -7.0408120751380920e-02 2.3984061181545258e-01</leafValues></_>
        <_>
          <internalNodes>
            0 -1 690 -4.3022289173677564e-04</internalNodes>
          <leafValues>
            1.5965694189071655e-01 -1.3419769704341888e-01</leafValues></_>
        <_>
          <internalNodes>
            0 -1 727 2.9115262441337109e-03</internalNodes>
          <leafValues>
            4.3324276804924011e-02 -4.6313545107841492e-01</leafValues></_>
        <_>
          <internalNodes>
            0 -1 604 1.1816880432888865e-03</internalNodes>
          <leafValues>
            -1.2026973068714142e-01 1.4484243094921112e-01</leafValues></_>
        <_>
          <internalNodes>
            0 -1 418 3.3493671566247940e-02</internalNodes>
          <leafValues>
            -8.2134172320365906e-02 2.8164502978324890e-01</leafValues></_>
        <_>
          <internalNodes>
            0 -1 270 -1.6171133518218994e-01</internalNodes>
          <leafValues>
            3.6341732740402222e-01 -4.6840846538543701e-02</leafValues></_>
        <_>
          <internalNodes>
            0 -1 2 2.3561522364616394e-02</internalNodes>
          <leafValues>
            -3.8082141429185867e-02 4.1210800409317017e-01</leafValues></_>
        <_>
          <internalNodes>
            0 -1 208 -5.0814882852137089e-03</internalNodes>
          <leafValues>
            -1.8093942105770111e-01 1.0068891942501068e-01</leafValues></_>
        <_>
          <internalNodes>
            0 -1 634 -2.5003476184792817e-04</internalNodes>
          <leafValues>
            1.3554434478282928e-01 -1.2330677360296249e-01</leafValues></_>
        <_>
          <internalNodes>
            0 -1 465 2.4293751266668551e-05</internalNodes>
          <leafValues>
            -1.3439060747623444e-01 1.2932100892066956e-01</leafValues></_>
        <_>
          <internalNodes>
            0 -1 43 -4.1699895518831909e-04</internalNodes>
          <leafValues>
            -1.5449555218219757e-01 1.0912103205919266e-01</leafValues></_>
        <_>
          <internalNodes>
            0 -1 731 2.3984094150364399e-03</internalNodes>
          <leafValues>
            -9.2194080352783203e-02 1.7444498836994171e-01</leafValues></_>
        <_>
          <internalNodes>
            0 -1 649 -1.8495248258113861e-01</internalNodes>
          <leafValues>
            5.7311791181564331e-01 -2.8096456080675125e-02</leafValues></_>
        <_>
          <internalNodes>
            0 -1 243 6.4613232389092445e-03</internalNodes>
          <leafValues>
            7.5709164142608643e-02 -2.2325339913368225e-01</leafValues></_>
        <_>
          <internalNodes>
            0 -1 429 -2.4410290643572807e-03</internalNodes>
          <leafValues>
            1.7664931714534760e-01 -9.9528208374977112e-02</leafValues></_>
        <_>
          <internalNodes>
            0 -1 194 6.7243441008031368e-03</internalNodes>
          <leafValues>
            4.2790144681930542e-02 -3.9004239439964294e-01</leafValues></_>
        <_>
          <internalNodes>
            0 -1 283 5.4559972137212753e-02</internalNodes>
          <leafValues>
            3.8371268659830093e-02 -4.4277352094650269e-01</leafValues></_>
        <_>
          <internalNodes>
            0 -1 248 8.6580170318484306e-04</internalNodes>
          <leafValues>
            -1.1093016713857651e-01 1.5645833313465118e-01</leafValues></_>
        <_>
          <internalNodes>
            0 -1 405 1.4783440565224737e-04</internalNodes>
          <leafValues>
            -1.1818523705005646e-01 1.4044521749019623e-01</leafValues></_>
        <_>
          <internalNodes>
            0 -1 347 5.8522932231426239e-03</internalNodes>
          <leafValues>
            -6.8776525557041168e-02 2.5994232296943665e-01</leafValues></_>
        <_>
          <internalNodes>
            0 -1 338 1.8422733992338181e-02</internalNodes>
          <leafValues>
            4.8745580017566681e-02 -3.8577738404273987e-01</leafValues></_>
        <_>
          <internalNodes>
            0 -1 290 3.3531442284584045e-02</internalNodes>
          <leafValues>
            -4.4745154678821564e-02 3.9639675617218018e-01</leafValues></_></weakClassifiers></_>
    <!-- stage 4 -->
    <_>
      <maxWeakCount>81</maxWeakCount>
      <stageThreshold>-5.5359864234924316e-01</stageThreshold>
      <weakClassifiers>
        <_>
          <internalNodes>
            0 -1 436 -1.1412549763917923e-02</internalNodes>
          <leafValues>
            -3.4042552113533020e-01 3.5763621330261230e-01</leafValues></_>
        <_>
          <internalNodes>
            0 -1 296 8.7199863046407700e-03</internalNodes>
          <leafValues>
            -5.6879635900259018e-02 3.0223059654235840e-01</leafValues></_>
        <_>
          <internalNodes>
            0 -1 530 -2.9141167178750038e-03</internalNodes>
          <leafValues>
            1.9104951620101929e-01 -9.9143251776695251e-02</leafValues></_>
        <_>
          <internalNodes>
            0 -1 477 1.8563007470220327e-03</internalNodes>
          <leafValues>
            3.5438682883977890e-02 -3.6324009299278259e-01</leafValues></_>
        <_>
          <internalNodes>
            0 -1 612 1.4720655977725983e-02</internalNodes>
          <leafValues>
            -6.5990462899208069e-02 2.7138927578926086e-01</leafValues></_>
        <_>
          <internalNodes>
            0 -1 570 1.4376046136021614e-02</internalNodes>
          <leafValues>
            -1.1480000615119934e-01 1.7169518768787384e-01</leafValues></_>
        <_>
          <internalNodes>
            0 -1 277 -5.3302291780710220e-03</internalNodes>
          <leafValues>
            2.2986292839050293e-01 -7.3662266135215759e-02</leafValues></_>
        <_>
          <internalNodes>
            0 -1 519 6.6631385125219822e-03</internalNodes>
          <leafValues>
            3.7946902215480804e-02 -5.4160237312316895e-01</leafValues></_>
        <_>
          <internalNodes>
            0 -1 437 4.3024523183703423e-03</internalNodes>
          <leafValues>
            -9.2593893408775330e-02 2.0670901238918304e-01</leafValues></_>
        <_>
          <internalNodes>
            0 -1 427 3.3440612256526947e-02</internalNodes>
          <leafValues>
            2.9044713824987411e-02 -5.3671944141387939e-01</leafValues></_>
        <_>
          <internalNodes>
            0 -1 185 -2.9925422277301550e-03</internalNodes>
          <leafValues>
            -3.1999099254608154e-01 5.8298278599977493e-02</leafValues></_>
        <_>
          <internalNodes>
            0 -1 609 2.2185914218425751e-02</internalNodes>
          <leafValues>
            4.8956457525491714e-02 -3.8830360770225525e-01</leafValues></_>
        <_>
          <internalNodes>
            0 -1 158 4.5803666580468416e-04</internalNodes>
          <leafValues>
            1.1853559315204620e-01 -1.4559239149093628e-01</leafValues></_>
        <_>
          <internalNodes>
            0 -1 443 -6.7807701416313648e-03</internalNodes>
          <leafValues>
            -3.3122551441192627e-01 5.0015136599540710e-02</leafValues></_>
        <_>
          <internalNodes>
            0 -1 14 -3.1838454306125641e-02</internalNodes>
          <leafValues>
            2.9080033302307129e-01 -6.1081618070602417e-02</leafValues></_>
        <_>
          <internalNodes>
            0 -1 659 -4.7086523845791817e-03</internalNodes>
          <leafValues>
            -5.0931662321090698e-01 3.4404780715703964e-02</leafValues></_>
        <_>
          <internalNodes>
            0 -1 529 1.8389779143035412e-03</internalNodes>
          <leafValues>
            -8.0663800239562988e-02 2.4148432910442352e-01</leafValues></_>
        <_>
          <internalNodes>
            0 -1 247 -7.6530803926289082e-04</internalNodes>
          <leafValues>
            1.6215157508850098e-01 -9.8608061671257019e-02</leafValues></_>
        <_>
          <internalNodes>
            0 -1 736 -7.9248356632888317e-04</internalNodes>
          <leafValues>
            -1.9509595632553101e-01 8.3095587790012360e-02</leafValues></_>
        <_>
          <internalNodes>
            0 -1 381 2.0558545365929604e-03</internalNodes>
          <leafValues>
            -8.2903295755386353e-02 2.1287515759468079e-01</leafValues></_>
        <_>
          <internalNodes>
            0 -1 547 -2.8320260345935822e-02</internalNodes>
          <leafValues>
            -5.2629208564758301e-01 3.4872036427259445e-02</leafValues></_>
        <_>
          <internalNodes>
            0 -1 27 -4.5611802488565445e-03</internalNodes>
          <leafValues>
            -2.2226125001907349e-01 8.0078110098838806e-02</leafValues></_>
        <_>
          <internalNodes>
            0 -1 572 1.1749194236472249e-03</internalNodes>
          <leafValues>
            -7.2463937103748322e-02 2.5848799943923950e-01</leafValues></_>
        <_>
          <internalNodes>
            0 -1 329 -3.2395799644291401e-04</internalNodes>
          <leafValues>
            1.5056368708610535e-01 -1.1902797222137451e-01</leafValues></_>
        <_>
          <internalNodes>
            0 -1 512 -6.6927913576364517e-03</internalNodes>
          <leafValues>
            -4.9697941541671753e-01 3.6034792661666870e-02</leafValues></_>
        <_>
          <internalNodes>
            0 -1 707 -7.2450155857950449e-04</internalNodes>
          <leafValues>
            1.7354506254196167e-01 -9.6926972270011902e-02</leafValues></_>
        <_>
          <internalNodes>
            0 -1 549 -1.8019318580627441e-02</internalNodes>
          <leafValues>
            2.3645946383476257e-01 -7.3434218764305115e-02</leafValues></_>
        <_>
          <internalNodes>
            0 -1 663 -4.0623992681503296e-03</internalNodes>
          <leafValues>
            -4.9598607420921326e-01 4.2817249894142151e-02</leafValues></_>
        <_>
          <internalNodes>
            0 -1 711 2.0818747580051422e-03</internalNodes>
          <leafValues>
            6.3725121319293976e-02 -2.6814264059066772e-01</leafValues></_>
        <_>
          <internalNodes>
            0 -1 435 3.6023728898726404e-04</internalNodes>
          <leafValues>
            -1.1461068689823151e-01 1.5667194128036499e-01</leafValues></_>
        <_>
          <internalNodes>
            0 -1 737 4.0875340346246958e-04</internalNodes>
          <leafValues>
            -1.1676077544689178e-01 1.5303680300712585e-01</leafValues></_>
        <_>
          <internalNodes>
            0 -1 618 -6.5252115018665791e-04</internalNodes>
          <leafValues>
            1.1778467893600464e-01 -1.5740971267223358e-01</leafValues></_>
        <_>
          <internalNodes>
            0 -1 528 -5.6921490468084812e-03</internalNodes>
          <leafValues>
            -4.2203906178474426e-01 4.7714125365018845e-02</leafValues></_>
        <_>
          <internalNodes>
            0 -1 93 9.4175431877374649e-04</internalNodes>
          <leafValues>
            -1.2824635207653046e-01 1.4080515503883362e-01</leafValues></_>
        <_>
          <internalNodes>
            0 -1 298 6.9164612796157598e-04</internalNodes>
          <leafValues>
            -8.7491638958454132e-02 1.9464240968227386e-01</leafValues></_>
        <_>
          <internalNodes>
            0 -1 301 -5.1267547532916069e-03</internalNodes>
          <leafValues>
            2.1172717213630676e-01 -1.1333514750003815e-01</leafValues></_>
        <_>
          <internalNodes>
            0 -1 254 -6.3985115848481655e-03</internalNodes>
          <leafValues>
            2.5275999307632446e-01 -9.0724080801010132e-02</leafValues></_>
        <_>
          <internalNodes>
            0 -1 402 1.1249344795942307e-02</internalNodes>
          <leafValues>
            3.3263824880123138e-02 -6.2355005741119385e-01</leafValues></_>
        <_>
          <internalNodes>
            0 -1 683 -1.0996801778674126e-02</internalNodes>
          <leafValues>
            -4.2592990398406982e-01 4.1284371167421341e-02</leafValues></_>
        <_>
          <internalNodes>
            0 -1 138 5.5134110152721405e-03</internalNodes>
          <leafValues>
            3.3828634768724442e-02 -5.1341140270233154e-01</leafValues></_>
        <_>
          <internalNodes>
            0 -1 40 -7.5559094548225403e-03</internalNodes>
          <leafValues>
            3.7159600853919983e-01 -5.4126892238855362e-02</leafValues></_>
        <_>
          <internalNodes>
            0 -1 404 -2.2202312946319580e-02</internalNodes>
          <leafValues>
            2.9776373505592346e-01 -6.3069559633731842e-02</leafValues></_>
        <_>
          <internalNodes>
            0 -1 391 7.5947470031678677e-03</internalNodes>
          <leafValues>
            3.8172390311956406e-02 -4.9157741665840149e-01</leafValues></_>
        <_>
          <internalNodes>
            0 -1 267 -3.5722903907299042e-02</internalNodes>
          <leafValues>
            -7.5435751676559448e-01 2.0243655890226364e-02</leafValues></_>
        <_>
          <internalNodes>
            0 -1 363 -3.4528546966612339e-03</internalNodes>
          <leafValues>
            2.0888365805149078e-01 -8.6799971759319305e-02</leafValues></_>
        <_>
          <internalNodes>
            0 -1 374 -7.3465221794322133e-04</internalNodes>
          <leafValues>
            1.6752795875072479e-01 -1.1332707107067108e-01</leafValues></_>
        <_>
          <internalNodes>
            0 -1 542 -3.0842176638543606e-03</internalNodes>
          <leafValues>
            -3.3532741665840149e-01 6.1139747500419617e-02</leafValues></_>
        <_>
          <internalNodes>
            0 -1 79 1.2542309239506721e-02</internalNodes>
          <leafValues>
            3.5092491656541824e-02 -4.8498645424842834e-01</leafValues></_>
        <_>
          <internalNodes>
            0 -1 188 -1.4203280210494995e-02</internalNodes>
          <leafValues>
            2.0618754625320435e-01 -8.9713729918003082e-02</leafValues></_>
        <_>
          <internalNodes>
            0 -1 593 1.5943789621815085e-03</internalNodes>
          <leafValues>
            -9.7129009664058685e-02 1.8293358385562897e-01</leafValues></_>
        <_>
          <internalNodes>
            0 -1 74 -1.1279425583779812e-02</internalNodes>
          <leafValues>
            -5.9839785099029541e-01 2.9965439811348915e-02</leafValues></_>
        <_>
          <internalNodes>
            0 -1 245 -1.6813518013805151e-03</internalNodes>
          <leafValues>
            1.7879053950309753e-01 -9.7164779901504517e-02</leafValues></_>
        <_>
          <internalNodes>
            0 -1 651 4.5708999037742615e-02</internalNodes>
          <leafValues>
            -4.4044457376003265e-02 3.5212463140487671e-01</leafValues></_>
        <_>
          <internalNodes>
            0 -1 701 -5.9258732944726944e-03</internalNodes>
          <leafValues>
            -4.8091658949851990e-01 3.4192759543657303e-02</leafValues></_>
        <_>
          <internalNodes>
            0 -1 591 2.2905569057911634e-03</internalNodes>
          <leafValues>
            -8.0946870148181915e-02 2.0065638422966003e-01</leafValues></_>
        <_>
          <internalNodes>
            0 -1 403 -1.0377336293458939e-02</internalNodes>
          <leafValues>
            -3.6677616834640503e-01 5.1601655781269073e-02</leafValues></_>
        <_>
          <internalNodes>
            0 -1 413 5.4103264119476080e-04</internalNodes>
          <leafValues>
            -1.0170409083366394e-01 1.5666647255420685e-01</leafValues></_>
        <_>
          <internalNodes>
            0 -1 240 -3.4135631285607815e-03</internalNodes>
          <leafValues>
            1.8945007026195526e-01 -8.4349647164344788e-02</leafValues></_>
        <_>
          <internalNodes>
            0 -1 241 3.5475578159093857e-02</internalNodes>
          <leafValues>
            5.9816185384988785e-02 -3.2935035228729248e-01</leafValues></_>
        <_>
          <internalNodes>
            0 -1 641 -5.7324138469994068e-04</internalNodes>
          <leafValues>
            1.9293114542961121e-01 -8.9221358299255371e-02</leafValues></_>
        <_>
          <internalNodes>
            0 -1 686 -6.2092760344967246e-04</internalNodes>
          <leafValues>
            -1.5758585929870605e-01 1.1042773723602295e-01</leafValues></_>
        <_>
          <internalNodes>
            0 -1 199 4.2766481637954712e-03</internalNodes>
          <leafValues>
            4.5163769274950027e-02 -3.6702197790145874e-01</leafValues></_>
        <_>
          <internalNodes>
            0 -1 56 -5.6725358590483665e-03</internalNodes>
          <leafValues>
            2.2051757574081421e-01 -7.2883963584899902e-02</leafValues></_>
        <_>
          <internalNodes>
            0 -1 6 3.4271772019565105e-03</internalNodes>
          <leafValues>
            -6.8513892590999603e-02 2.2828297317028046e-01</leafValues></_>
        <_>
          <internalNodes>
            0 -1 639 -5.2488003857433796e-03</internalNodes>
          <leafValues>
            -8.7959176301956177e-01 1.8550133332610130e-02</leafValues></_>
        <_>
          <internalNodes>
            0 -1 85 -6.8964768433943391e-04</internalNodes>
          <leafValues>
            1.8000228703022003e-01 -8.6897991597652435e-02</leafValues></_>
        <_>
          <internalNodes>
            0 -1 361 4.6782083809375763e-03</internalNodes>
          <leafValues>
            3.4832738339900970e-02 -4.5503753423690796e-01</leafValues></_>
        <_>
          <internalNodes>
            0 -1 155 7.0843756198883057e-02</internalNodes>
          <leafValues>
            -3.8353040814399719e-02 4.4779318571090698e-01</leafValues></_>
        <_>
          <internalNodes>
            0 -1 453 -2.8143113013356924e-03</internalNodes>
          <leafValues>
            -4.6773663163185120e-01 3.8679819554090500e-02</leafValues></_>
        <_>
          <internalNodes>
            0 -1 73 -1.0915098246186972e-03</internalNodes>
          <leafValues>
            -2.0129968225955963e-01 9.0082943439483643e-02</leafValues></_>
        <_>
          <internalNodes>
            0 -1 478 -2.0779250189661980e-03</internalNodes>
          <leafValues>
            1.8175390362739563e-01 -9.1572850942611694e-02</leafValues></_>
        <_>
          <internalNodes>
            0 -1 71 -1.6327306628227234e-02</internalNodes>
          <leafValues>
            -2.4472513794898987e-01 6.9142945110797882e-02</leafValues></_>
        <_>
          <internalNodes>
            0 -1 99 -1.6864512581378222e-03</internalNodes>
          <leafValues>
            1.8285422027111053e-01 -8.9355230331420898e-02</leafValues></_>
        <_>
          <internalNodes>
            0 -1 573 1.9936971366405487e-03</internalNodes>
          <leafValues>
            -8.4028840065002441e-02 2.2091160714626312e-01</leafValues></_>
        <_>
          <internalNodes>
            0 -1 553 -1.8437735270708799e-03</internalNodes>
          <leafValues>
            1.8425086140632629e-01 -1.0679354518651962e-01</leafValues></_>
        <_>
          <internalNodes>
            0 -1 542 2.2500564809888601e-03</internalNodes>
          <leafValues>
            6.4855434000492096e-02 -2.7765253186225891e-01</leafValues></_>
        <_>
          <internalNodes>
            0 -1 735 8.7385475635528564e-03</internalNodes>
          <leafValues>
            1.9961059093475342e-02 -7.8447574377059937e-01</leafValues></_>
        <_>
          <internalNodes>
            0 -1 495 -1.2486283667385578e-03</internalNodes>
          <leafValues>
            2.0431575179100037e-01 -8.2618199288845062e-02</leafValues></_>
        <_>
          <internalNodes>
            0 -1 556 -4.6878069406375289e-04</internalNodes>
          <leafValues>
            1.6804125905036926e-01 -1.0498127341270447e-01</leafValues></_>
        <_>
          <internalNodes>
            0 -1 354 -5.6283278390765190e-03</internalNodes>
          <leafValues>
            -5.4314935207366943e-01 3.2927058637142181e-02</leafValues></_>
        <_>
          <internalNodes>
            0 -1 285 -5.5247070267796516e-03</internalNodes>
          <leafValues>
            2.1080487966537476e-01 -8.3364434540271759e-02</leafValues></_></weakClassifiers></_>
    <!-- stage 5 -->
    <_>
      <maxWeakCount>92</maxWeakCount>
      <stageThreshold>-6.3200604915618896e-01</stageThreshold>
      <weakClassifiers>
        <_>
          <internalNodes>
            0 -1 430 -7.1167997084558010e-03</internalNodes>
          <leafValues>
            -5.5555558204650879e-01 3.5147392749786377e-01</leafValues></_>
        <_>
          <internalNodes>
            0 -1 595 1.5883972868323326e-02</internalNodes>
          <leafValues>
            -4.2351793497800827e-02 3.2947635650634766e-01</leafValues></_>
        <_>
          <internalNodes>
            0 -1 356 4.2101163417100906e-03</internalNodes>
          <leafValues>
            -8.9762486517429352e-02 1.9953937828540802e-01</leafValues></_>
        <_>
          <internalNodes>
            0 -1 628 -1.7455479828640819e-03</internalNodes>
          <leafValues>
            1.2298368662595749e-01 -1.8025332689285278e-01</leafValues></_>
        <_>
          <internalNodes>
            0 -1 466 -3.8141530239954591e-04</internalNodes>
          <leafValues>
            1.7728579044342041e-01 -1.0697951912879944e-01</leafValues></_>
        <_>
          <internalNodes>
            0 -1 543 -2.2107264958322048e-03</internalNodes>
          <leafValues>
            2.0303601026535034e-01 -1.0627636313438416e-01</leafValues></_>
        <_>
          <internalNodes>
            0 -1 59 -5.4957084357738495e-03</internalNodes>
          <leafValues>
            -6.0221642255783081e-01 3.5550512373447418e-02</leafValues></_>
        <_>
          <internalNodes>
            0 -1 88 4.2641907930374146e-03</internalNodes>
          <leafValues>
            3.3993195742368698e-02 -5.1271396875381470e-01</leafValues></_>
        <_>
          <internalNodes>
            0 -1 321 -1.5042964369058609e-03</internalNodes>
          <leafValues>
            2.1461668610572815e-01 -8.3457514643669128e-02</leafValues></_>
        <_>
          <internalNodes>
            0 -1 376 2.0282808691263199e-03</internalNodes>
          <leafValues>
            -9.7977600991725922e-02 2.0377752184867859e-01</leafValues></_>
        <_>
          <internalNodes>
            0 -1 57 5.5985595099627972e-04</internalNodes>
          <leafValues>
            -1.0412333160638809e-01 1.7884376645088196e-01</leafValues></_>
        <_>
          <internalNodes>
            0 -1 49 -3.9120297878980637e-03</internalNodes>
          <leafValues>
            1.7851498723030090e-01 -1.2188079953193665e-01</leafValues></_>
        <_>
          <internalNodes>
            0 -1 37 4.6986848115921021e-02</internalNodes>
          <leafValues>
            -8.3885647356510162e-02 2.1566964685916901e-01</leafValues></_>
        <_>
          <internalNodes>
            0 -1 220 4.9660541117191315e-03</internalNodes>
          <leafValues>
            3.7182714790105820e-02 -5.0224792957305908e-01</leafValues></_>
        <_>
          <internalNodes>
            0 -1 617 3.4461091272532940e-03</internalNodes>
          <leafValues>
            -7.3727235198020935e-02 2.3400244116783142e-01</leafValues></_>
        <_>
          <internalNodes>
            0 -1 626 -7.4201701208949089e-03</internalNodes>
          <leafValues>
            -3.9190524816513062e-01 5.9036042541265488e-02</leafValues></_>
        <_>
          <internalNodes>
            0 -1 713 2.0991144701838493e-03</internalNodes>
          <leafValues>
            -1.1666752398014069e-01 1.7860403656959534e-01</leafValues></_>
        <_>
          <internalNodes>
            0 -1 531 1.0050723794847727e-03</internalNodes>
          <leafValues>
            -8.8043853640556335e-02 2.0813100039958954e-01</leafValues></_>
        <_>
          <internalNodes>
            0 -1 504 -7.2641908191144466e-03</internalNodes>
          <leafValues>
            1.7323830723762512e-01 -9.6661292016506195e-02</leafValues></_>
        <_>
          <internalNodes>
            0 -1 370 6.0860827565193176e-02</internalNodes>
          <leafValues>
            2.8497591614723206e-02 -6.4044785499572754e-01</leafValues></_>
        <_>
          <internalNodes>
            0 -1 652 9.5610311254858971e-03</internalNodes>
          <leafValues>
            -6.2973938882350922e-02 2.9462307691574097e-01</leafValues></_>
        <_>
          <internalNodes>
            0 -1 147 1.5144920907914639e-03</internalNodes>
          <leafValues>
            -8.0639295279979706e-02 2.0156589150428772e-01</leafValues></_>
        <_>
          <internalNodes>
            0 -1 111 1.2284690514206886e-02</internalNodes>
          <leafValues>
            3.1129565089941025e-02 -5.9515458345413208e-01</leafValues></_>
        <_>
          <internalNodes>
            0 -1 564 -7.8819077461957932e-03</internalNodes>
          <leafValues>
            -5.3199297189712524e-01 2.8859551995992661e-02</leafValues></_>
        <_>
          <internalNodes>
            0 -1 580 6.6914898343384266e-04</internalNodes>
          <leafValues>
            -1.1615397036075592e-01 1.4159627258777618e-01</leafValues></_>
        <_>
          <internalNodes>
            0 -1 209 -7.4470294639468193e-03</internalNodes>
          <leafValues>
            2.0696863532066345e-01 -7.5945109128952026e-02</leafValues></_>
        <_>
          <internalNodes>
            0 -1 445 -4.8823007382452488e-03</internalNodes>
          <leafValues>
            -4.9386224150657654e-01 3.4721903502941132e-02</leafValues></_>
        <_>
          <internalNodes>
            0 -1 530 3.2538285013288260e-03</internalNodes>
          <leafValues>
            -7.3382891714572906e-02 2.3601487278938293e-01</leafValues></_>
        <_>
          <internalNodes>
            0 -1 579 -7.8536348883062601e-04</internalNodes>
          <leafValues>
            1.5048429369926453e-01 -1.1128119379281998e-01</leafValues></_>
        <_>
          <internalNodes>
            0 -1 119 -8.6404860485345125e-04</internalNodes>
          <leafValues>
            1.4052924513816833e-01 -1.1578992754220963e-01</leafValues></_>
        <_>
          <internalNodes>
            0 -1 32 2.1848073601722717e-01</internalNodes>
          <leafValues>
            -3.3424183726310730e-02 5.4988026618957520e-01</leafValues></_>
        <_>
          <internalNodes>
            0 -1 431 1.4725080691277981e-02</internalNodes>
          <leafValues>
            4.6235527843236923e-02 -4.1504192352294922e-01</leafValues></_>
        <_>
          <internalNodes>
            0 -1 153 -6.5334292594343424e-04</internalNodes>
          <leafValues>
            1.5972460806369781e-01 -1.1145530641078949e-01</leafValues></_>
        <_>
          <internalNodes>
            0 -1 453 4.1741444729268551e-03</internalNodes>
          <leafValues>
            2.3996628820896149e-02 -7.3197704553604126e-01</leafValues></_>
        <_>
          <internalNodes>
            0 -1 406 3.3824937418103218e-03</internalNodes>
          <leafValues>
            3.2007977366447449e-02 -4.8263117671012878e-01</leafValues></_>
        <_>
          <internalNodes>
            0 -1 592 -1.1019853875041008e-02</internalNodes>
          <leafValues>
            2.4381645023822784e-01 -6.8271405994892120e-02</leafValues></_>
        <_>
          <internalNodes>
            0 -1 333 2.6109260506927967e-03</internalNodes>
          <leafValues>
            -9.5969587564468384e-02 1.9320033490657806e-01</leafValues></_>
        <_>
          <internalNodes>
            0 -1 195 -4.4027820229530334e-02</internalNodes>
          <leafValues>
            -5.4362863302230835e-01 4.0076162666082382e-02</leafValues></_>
        <_>
          <internalNodes>
            0 -1 86 2.7468390762805939e-03</internalNodes>
          <leafValues>
            -9.3484997749328613e-02 2.4482208490371704e-01</leafValues></_>
        <_>
          <internalNodes>
            0 -1 648 3.7074764259159565e-03</internalNodes>
          <leafValues>
            3.1997688114643097e-02 -5.6131607294082642e-01</leafValues></_>
        <_>
          <internalNodes>
            0 -1 367 -7.2453590109944344e-03</internalNodes>
          <leafValues>
            3.0527839064598083e-01 -5.8523744344711304e-02</leafValues></_>
        <_>
          <internalNodes>
            0 -1 722 -1.5543515328317881e-03</internalNodes>
          <leafValues>
            1.4532540738582611e-01 -1.1038617789745331e-01</leafValues></_>
        <_>
          <internalNodes>
            0 -1 440 -5.0677349790930748e-03</internalNodes>
          <leafValues>
            -5.7902503013610840e-01 2.8986621648073196e-02</leafValues></_>
        <_>
          <internalNodes>
            0 -1 474 -6.3649087678641081e-04</internalNodes>
          <leafValues>
            1.6544951498508453e-01 -1.0400985926389694e-01</leafValues></_>
        <_>
          <internalNodes>
            0 -1 476 2.7516338974237442e-02</internalNodes>
          <leafValues>
            4.1060451418161392e-02 -4.3381947278976440e-01</leafValues></_>
        <_>
          <internalNodes>
            0 -1 304 2.4455306120216846e-03</internalNodes>
          <leafValues>
            -9.0946592390537262e-02 1.8885415792465210e-01</leafValues></_>
        <_>
          <internalNodes>
            0 -1 548 1.0707219131290913e-02</internalNodes>
          <leafValues>
            8.6844570934772491e-02 -1.9164651632308960e-01</leafValues></_>
        <_>
          <internalNodes>
            0 -1 423 2.8542015934363008e-04</internalNodes>
          <leafValues>
            -1.1009890586137772e-01 1.7089459300041199e-01</leafValues></_>
        <_>
          <internalNodes>
            0 -1 422 -1.2287939898669720e-02</internalNodes>
          <leafValues>
            -5.4658198356628418e-01 3.4110739827156067e-02</leafValues></_>
        <_>
          <internalNodes>
            0 -1 597 -2.8149809222668409e-03</internalNodes>
          <leafValues>
            2.5729808211326599e-01 -7.3642641305923462e-02</leafValues></_>
        <_>
          <internalNodes>
            0 -1 691 -5.3785427007824183e-04</internalNodes>
          <leafValues>
            1.6461339592933655e-01 -1.1577287316322327e-01</leafValues></_>
        <_>
          <internalNodes>
            0 -1 226 -2.5512997061014175e-02</internalNodes>
          <leafValues>
            1.7435778677463531e-01 -1.0540876537561417e-01</leafValues></_>
        <_>
          <internalNodes>
            0 -1 725 -4.1324524208903313e-03</internalNodes>
          <leafValues>
            -3.9846071600914001e-01 4.8712991178035736e-02</leafValues></_>
        <_>
          <internalNodes>
            0 -1 541 1.4623197494074702e-03</internalNodes>
          <leafValues>
            6.8299263715744019e-02 -2.6361325383186340e-01</leafValues></_>
        <_>
          <internalNodes>
            0 -1 23 -2.8459053486585617e-02</internalNodes>
          <leafValues>
            -2.4790625274181366e-01 7.0565544068813324e-02</leafValues></_>
        <_>
          <internalNodes>
            0 -1 84 1.2647595722228289e-03</internalNodes>
          <leafValues>
            -1.1378955841064453e-01 1.6165307164192200e-01</leafValues></_>
        <_>
          <internalNodes>
            0 -1 264 -3.4180812537670135e-02</internalNodes>
          <leafValues>
            -6.5563750267028809e-01 3.3323854207992554e-02</leafValues></_>
        <_>
          <internalNodes>
            0 -1 673 -4.4649094343185425e-03</internalNodes>
          <leafValues>
            2.4443638324737549e-01 -7.8338839113712311e-02</leafValues></_>
        <_>
          <internalNodes>
            0 -1 611 -4.6853674575686455e-03</internalNodes>
          <leafValues>
            2.5940337777137756e-01 -6.5863914787769318e-02</leafValues></_>
        <_>
          <internalNodes>
            0 -1 614 1.3176340144127607e-03</internalNodes>
          <leafValues>
            -1.1315023899078369e-01 1.8440899252891541e-01</leafValues></_>
        <_>
          <internalNodes>
            0 -1 494 9.9122934043407440e-03</internalNodes>
          <leafValues>
            4.7065883874893188e-02 -4.1926988959312439e-01</leafValues></_>
        <_>
          <internalNodes>
            0 -1 677 -2.0134656224399805e-03</internalNodes>
          <leafValues>
            1.8259555101394653e-01 -9.5616199076175690e-02</leafValues></_>
        <_>
          <internalNodes>
            0 -1 703 6.7418999969959259e-04</internalNodes>
          <leafValues>
            -9.4737127423286438e-02 1.9057531654834747e-01</leafValues></_>
        <_>
          <internalNodes>
            0 -1 724 4.9036960117518902e-03</internalNodes>
          <leafValues>
            2.5050658732652664e-02 -7.8604489564895630e-01</leafValues></_>
        <_>
          <internalNodes>
            0 -1 695 -6.3644105102866888e-04</internalNodes>
          <leafValues>
            -1.9309976696968079e-01 9.0851061046123505e-02</leafValues></_>
        <_>
          <internalNodes>
            0 -1 346 -2.2951906546950340e-02</internalNodes>
          <leafValues>
            -5.6377893686294556e-01 3.2055370509624481e-02</leafValues></_>
        <_>
          <internalNodes>
            0 -1 412 -9.0752365067601204e-03</internalNodes>
          <leafValues>
            4.2150348424911499e-01 -5.1534935832023621e-02</leafValues></_>
        <_>
          <internalNodes>
            0 -1 718 4.6336445957422256e-02</internalNodes>
          <leafValues>
            4.2137637734413147e-02 -4.4310361146926880e-01</leafValues></_>
        <_>
          <internalNodes>
            0 -1 409 -2.3170532658696175e-03</internalNodes>
          <leafValues>
            -3.6398068070411682e-01 4.1839331388473511e-02</leafValues></_>
        <_>
          <internalNodes>
            0 -1 1 7.0209100842475891e-02</internalNodes>
          <leafValues>
            -3.3861268311738968e-02 4.9963688850402832e-01</leafValues></_>
        <_>
          <internalNodes>
            0 -1 269 7.4973300099372864e-02</internalNodes>
          <leafValues>
            2.4332500994205475e-02 -8.5640108585357666e-01</leafValues></_>
        <_>
          <internalNodes>
            0 -1 536 5.3301025182008743e-03</internalNodes>
          <leafValues>
            -7.1386843919754028e-02 2.4627064168453217e-01</leafValues></_>
        <_>
          <internalNodes>
            0 -1 664 -5.8523034676909447e-03</internalNodes>
          <leafValues>
            -6.2335836887359619e-01 2.7666093781590462e-02</leafValues></_>
        <_>
          <internalNodes>
            0 -1 210 5.7257240405306220e-04</internalNodes>
          <leafValues>
            -8.8688954710960388e-02 1.8464526534080505e-01</leafValues></_>
        <_>
          <internalNodes>
            0 -1 95 -2.9425371903926134e-03</internalNodes>
          <leafValues>
            -3.6255604028701782e-01 4.9199447035789490e-02</leafValues></_>
        <_>
          <internalNodes>
            0 -1 511 2.0079074893146753e-03</internalNodes>
          <leafValues>
            -8.6168140172958374e-02 1.9109013676643372e-01</leafValues></_>
        <_>
          <internalNodes>
            0 -1 38 -5.2330475300550461e-02</internalNodes>
          <leafValues>
            -6.5583336353302002e-01 2.4781417101621628e-02</leafValues></_>
        <_>
          <internalNodes>
            0 -1 196 -3.6338481004349887e-04</internalNodes>
          <leafValues>
            1.3590684533119202e-01 -1.1492300778627396e-01</leafValues></_>
        <_>
          <internalNodes>
            0 -1 35 -4.4691488146781921e-02</internalNodes>
          <leafValues>
            -2.0324262976646423e-01 8.7750963866710663e-02</leafValues></_>
        <_>
          <internalNodes>
            0 -1 268 5.0514918984845281e-04</internalNodes>
          <leafValues>
            -1.3709127902984619e-01 1.1806127429008484e-01</leafValues></_>
        <_>
          <internalNodes>
            0 -1 144 1.6080390661954880e-02</internalNodes>
          <leafValues>
            6.0834076255559921e-02 -2.8958231210708618e-01</leafValues></_>
        <_>
          <internalNodes>
            0 -1 468 7.8726457431912422e-03</internalNodes>
          <leafValues>
            4.9124624580144882e-02 -3.6996507644653320e-01</leafValues></_>
        <_>
          <internalNodes>
            0 -1 698 -6.3531681895256042e-02</internalNodes>
          <leafValues>
            5.4120558500289917e-01 -3.4067936241626740e-02</leafValues></_>
        <_>
          <internalNodes>
            0 -1 233 -2.6046053972095251e-03</internalNodes>
          <leafValues>
            2.7202126383781433e-01 -5.8010190725326538e-02</leafValues></_>
        <_>
          <internalNodes>
            0 -1 131 1.6024312004446983e-02</internalNodes>
          <leafValues>
            -9.4696067273616791e-02 1.7910440266132355e-01</leafValues></_>
        <_>
          <internalNodes>
            0 -1 239 -4.6412656083703041e-03</internalNodes>
          <leafValues>
            3.2940390706062317e-01 -5.1027968525886536e-02</leafValues></_>
        <_>
          <internalNodes>
            0 -1 387 -2.1337307989597321e-02</internalNodes>
          <leafValues>
            -3.5731911659240723e-01 5.2565518766641617e-02</leafValues></_>
        <_>
          <internalNodes>
            0 -1 473 6.2151942402124405e-03</internalNodes>
          <leafValues>
            -8.3201207220554352e-02 2.0501437783241272e-01</leafValues></_>
        <_>
          <internalNodes>
            0 -1 486 -2.6078384369611740e-02</internalNodes>
          <leafValues>
            -3.3726632595062256e-01 5.0115693360567093e-02</leafValues></_>
        <_>
          <internalNodes>
            0 -1 115 5.4919637739658356e-02</internalNodes>
          <leafValues>
            -2.7327679097652435e-02 6.6048562526702881e-01</leafValues></_>
        <_>
          <internalNodes>
            0 -1 507 -6.0236761346459389e-03</internalNodes>
          <leafValues>
            1.3927119970321655e-01 -1.2443884462118149e-01</leafValues></_>
        <_>
          <internalNodes>
            0 -1 524 2.4243472144007683e-03</internalNodes>
          <leafValues>
            -8.2537449896335602e-02 2.1912248432636261e-01</leafValues></_></weakClassifiers></_>
    <!-- stage 6 -->
    <_>
      <maxWeakCount>81</maxWeakCount>
      <stageThreshold>-4.7530877590179443e-01</stageThreshold>
      <weakClassifiers>
        <_>
          <internalNodes>
            0 -1 408 -6.9581177085638046e-03</internalNodes>
          <leafValues>
            5.2791875600814819e-01 2.5313806533813477e-01</leafValues></_>
        <_>
          <internalNodes>
            0 -1 106 5.4566701874136925e-04</internalNodes>
          <leafValues>
            -9.0859577059745789e-02 2.0504929125308990e-01</leafValues></_>
        <_>
          <internalNodes>
            0 -1 407 8.0035720020532608e-03</internalNodes>
          <leafValues>
            -1.2549325823783875e-01 2.9639965295791626e-01</leafValues></_>
        <_>
          <internalNodes>
            0 -1 143 -1.2164604850113392e-02</internalNodes>
          <leafValues>
            3.3710625767707825e-01 -5.1353804767131805e-02</leafValues></_>
        <_>
          <internalNodes>
            0 -1 432 -5.1988800987601280e-03</internalNodes>
          <leafValues>
            2.9391607642173767e-01 -4.6126551926136017e-02</leafValues></_>
        <_>
          <internalNodes>
            0 -1 419 -3.1171215232461691e-04</internalNodes>
          <leafValues>
            1.2142582237720490e-01 -1.6306342184543610e-01</leafValues></_>
        <_>
          <internalNodes>
            0 -1 305 2.5230625178664923e-03</internalNodes>
          <leafValues>
            -1.1265172064304352e-01 1.5821085870265961e-01</leafValues></_>
        <_>
          <internalNodes>
            0 -1 615 7.3126610368490219e-03</internalNodes>
          <leafValues>
            2.7678316459059715e-02 -6.6168808937072754e-01</leafValues></_>
        <_>
          <internalNodes>
            0 -1 213 4.4025471433997154e-03</internalNodes>
          <leafValues>
            2.6718989014625549e-02 -5.8365339040756226e-01</leafValues></_>
        <_>
          <internalNodes>
            0 -1 491 -5.2775647491216660e-03</internalNodes>
          <leafValues>
            -7.9606306552886963e-01 2.1393807604908943e-02</leafValues></_>
        <_>
          <internalNodes>
            0 -1 699 6.0251273214817047e-02</internalNodes>
          <leafValues>
            -3.7245571613311768e-02 4.3525221943855286e-01</leafValues></_>
        <_>
          <internalNodes>
            0 -1 716 2.3112162016332150e-03</internalNodes>
          <leafValues>
            -8.2480214536190033e-02 1.9382680952548981e-01</leafValues></_>
        <_>
          <internalNodes>
            0 -1 444 1.6657106578350067e-02</internalNodes>
          <leafValues>
            3.0875978991389275e-02 -5.5882930755615234e-01</leafValues></_>
        <_>
          <internalNodes>
            0 -1 738 4.1102143004536629e-03</internalNodes>
          <leafValues>
            -7.6942548155784607e-02 2.1149270236492157e-01</leafValues></_>
        <_>
          <internalNodes>
            0 -1 746 -2.2477097809314728e-02</internalNodes>
          <leafValues>
            4.0888908505439758e-01 -3.8824949413537979e-02</leafValues></_>
        <_>
          <internalNodes>
            0 -1 396 1.4798786723986268e-03</internalNodes>
          <leafValues>
            -8.0378152430057526e-02 2.0699927210807800e-01</leafValues></_>
        <_>
          <internalNodes>
            0 -1 601 -3.4457151778042316e-03</internalNodes>
          <leafValues>
            -4.5084673166275024e-01 3.7722554057836533e-02</leafValues></_>
        <_>
          <internalNodes>
            0 -1 140 -3.0598451849073172e-03</internalNodes>
          <leafValues>
            1.9433861970901489e-01 -8.5918225347995758e-02</leafValues></_>
        <_>
          <internalNodes>
            0 -1 201 -5.3185829892754555e-03</internalNodes>
          <leafValues>
            -4.5012766122817993e-01 3.6565251648426056e-02</leafValues></_>
        <_>
          <internalNodes>
            0 -1 130 -1.0627992451190948e-03</internalNodes>
          <leafValues>
            1.4298701286315918e-01 -1.1705251783132553e-01</leafValues></_>
        <_>
          <internalNodes>
            0 -1 253 6.0167196206748486e-03</internalNodes>
          <leafValues>
            2.7766881510615349e-02 -5.5177366733551025e-01</leafValues></_>
        <_>
          <internalNodes>
            0 -1 293 3.0061542987823486e-02</internalNodes>
          <leafValues>
            -6.6142819821834564e-02 2.2409220039844513e-01</leafValues></_>
        <_>
          <internalNodes>
            0 -1 471 -3.0042782891541719e-03</internalNodes>
          <leafValues>
            1.9265428185462952e-01 -9.2263348400592804e-02</leafValues></_>
        <_>
          <internalNodes>
            0 -1 340 -4.6324059367179871e-03</internalNodes>
          <leafValues>
            -2.8364664316177368e-01 6.7489229142665863e-02</leafValues></_>
        <_>
          <internalNodes>
            0 -1 314 -5.0869761034846306e-03</internalNodes>
          <leafValues>
            -7.3734980821609497e-01 1.8805863335728645e-02</leafValues></_>
        <_>
          <internalNodes>
            0 -1 480 -3.6637769080698490e-03</internalNodes>
          <leafValues>
            -5.1476961374282837e-01 2.5144832208752632e-02</leafValues></_>
        <_>
          <internalNodes>
            0 -1 51 -3.7717181839980185e-04</internalNodes>
          <leafValues>
            1.2351443618535995e-01 -1.1806046217679977e-01</leafValues></_>
        <_>
          <internalNodes>
            0 -1 174 -7.6019028201699257e-03</internalNodes>
          <leafValues>
            -8.1866765022277832e-01 2.0746652036905289e-02</leafValues></_>
        <_>
          <internalNodes>
            0 -1 176 1.7652100650593638e-03</internalNodes>
          <leafValues>
            -6.5450571477413177e-02 2.8748947381973267e-01</leafValues></_>
        <_>
          <internalNodes>
            0 -1 15 -2.4610720574855804e-03</internalNodes>
          <leafValues>
            1.7376324534416199e-01 -9.2209659516811371e-02</leafValues></_>
        <_>
          <internalNodes>
            0 -1 91 6.4554074779152870e-03</internalNodes>
          <leafValues>
            4.4679485261440277e-02 -3.4575358033180237e-01</leafValues></_>
        <_>
          <internalNodes>
            0 -1 214 1.1483467184007168e-02</internalNodes>
          <leafValues>
            -5.6638024747371674e-02 2.7451169490814209e-01</leafValues></_>
        <_>
          <internalNodes>
            0 -1 16 4.0518185123801231e-03</internalNodes>
          <leafValues>
            -7.7008634805679321e-02 1.9573712348937988e-01</leafValues></_>
        <_>
          <internalNodes>
            0 -1 60 -2.3071854375302792e-03</internalNodes>
          <leafValues>
            1.7803439497947693e-01 -1.0894516855478287e-01</leafValues></_>
        <_>
          <internalNodes>
            0 -1 103 4.5422026887536049e-03</internalNodes>
          <leafValues>
            5.0833590328693390e-02 -3.2029670476913452e-01</leafValues></_>
        <_>
          <internalNodes>
            0 -1 7 -8.9430458843708038e-02</internalNodes>
          <leafValues>
            -4.9256029725074768e-01 3.0089944601058960e-02</leafValues></_>
        <_>
          <internalNodes>
            0 -1 120 4.0902277827262878e-01</internalNodes>
          <leafValues>
            -3.0112922191619873e-02 5.9080171585083008e-01</leafValues></_>
        <_>
          <internalNodes>
            0 -1 393 2.3185811936855316e-02</internalNodes>
          <leafValues>
            9.0622663497924805e-02 -1.7495620250701904e-01</leafValues></_>
        <_>
          <internalNodes>
            0 -1 75 -8.7808369426056743e-04</internalNodes>
          <leafValues>
            1.4766681194305420e-01 -1.0697986930608749e-01</leafValues></_>
        <_>
          <internalNodes>
            0 -1 41 1.1483425274491310e-02</internalNodes>
          <leafValues>
            -3.8710176944732666e-02 4.1322898864746094e-01</leafValues></_>
        <_>
          <internalNodes>
            0 -1 364 -1.9026923924684525e-02</internalNodes>
          <leafValues>
            -3.6918061971664429e-01 4.2831968516111374e-02</leafValues></_>
        <_>
          <internalNodes>
            0 -1 278 -6.2289722263813019e-03</internalNodes>
          <leafValues>
            2.9459983110427856e-01 -5.7844217866659164e-02</leafValues></_>
        <_>
          <internalNodes>
            0 -1 613 5.5543630151078105e-04</internalNodes>
          <leafValues>
            -9.8643608391284943e-02 1.5235450863838196e-01</leafValues></_>
        <_>
          <internalNodes>
            0 -1 236 -5.9084128588438034e-03</internalNodes>
          <leafValues>
            2.4464210867881775e-01 -6.9361351430416107e-02</leafValues></_>
        <_>
          <internalNodes>
            0 -1 498 -3.0463729053735733e-02</internalNodes>
          <leafValues>
            -4.9739152193069458e-01 3.1015498563647270e-02</leafValues></_>
        <_>
          <internalNodes>
            0 -1 360 3.9835277944803238e-02</internalNodes>
          <leafValues>
            -2.9478525742888451e-02 5.1652890443801880e-01</leafValues></_>
        <_>
          <internalNodes>
            0 -1 151 3.2551842741668224e-03</internalNodes>
          <leafValues>
            -5.7094808667898178e-02 2.4320048093795776e-01</leafValues></_>
        <_>
          <internalNodes>
            0 -1 215 1.2417826056480408e-01</internalNodes>
          <leafValues>
            2.6063177734613419e-02 -6.1386430263519287e-01</leafValues></_>
        <_>
          <internalNodes>
            0 -1 300 3.2062791287899017e-03</internalNodes>
          <leafValues>
            -7.1031697094440460e-02 2.3133111000061035e-01</leafValues></_>
        <_>
          <internalNodes>
            0 -1 344 3.8788102101534605e-03</internalNodes>
          <leafValues>
            -6.9119259715080261e-02 2.4997085332870483e-01</leafValues></_>
        <_>
          <internalNodes>
            0 -1 636 1.8818590324372053e-03</internalNodes>
          <leafValues>
            4.9343727529048920e-02 -2.9774427413940430e-01</leafValues></_>
        <_>
          <internalNodes>
            0 -1 583 1.7506298609077930e-03</internalNodes>
          <leafValues>
            -7.0441141724586487e-02 2.0019932091236115e-01</leafValues></_>
        <_>
          <internalNodes>
            0 -1 382 -4.3711978942155838e-02</internalNodes>
          <leafValues>
            -6.0183459520339966e-01 2.8373965993523598e-02</leafValues></_>
        <_>
          <internalNodes>
            0 -1 127 3.4875616431236267e-02</internalNodes>
          <leafValues>
            1.3176746666431427e-02 -1.</leafValues></_>
        <_>
          <internalNodes>
            0 -1 732 -1.2881516013294458e-03</internalNodes>
          <leafValues>
            2.0886842906475067e-01 -7.5813218951225281e-02</leafValues></_>
        <_>
          <internalNodes>
            0 -1 313 6.7873358726501465e-02</internalNodes>
          <leafValues>
            2.6168065145611763e-02 -5.4681867361068726e-01</leafValues></_>
        <_>
          <internalNodes>
            0 -1 489 -2.2627764847129583e-03</internalNodes>
          <leafValues>
            2.4098402261734009e-01 -6.8269476294517517e-02</leafValues></_>
        <_>
          <internalNodes>
            0 -1 527 7.0056319236755371e-03</internalNodes>
          <leafValues>
            -7.5140409171581268e-02 1.9137585163116455e-01</leafValues></_>
        <_>
          <internalNodes>
            0 -1 354 1.3601498212665319e-03</internalNodes>
          <leafValues>
            7.4648275971412659e-02 -2.1488757431507111e-01</leafValues></_>
        <_>
          <internalNodes>
            0 -1 545 -5.9457235038280487e-03</internalNodes>
          <leafValues>
            -4.1479083895683289e-01 3.6055222153663635e-02</leafValues></_>
        <_>
          <internalNodes>
            0 -1 146 -7.2014369070529938e-03</internalNodes>
          <leafValues>
            -4.9368846416473389e-01 3.0237544327974319e-02</leafValues></_>
        <_>
          <internalNodes>
            0 -1 180 1.9633755087852478e-02</internalNodes>
          <leafValues>
            5.7531803846359253e-02 -2.4682715535163879e-01</leafValues></_>
        <_>
          <internalNodes>
            0 -1 410 5.3991796448826790e-04</internalNodes>
          <leafValues>
            -8.9832544326782227e-02 1.8985651433467865e-01</leafValues></_>
        <_>
          <internalNodes>
            0 -1 397 -7.1517541073262691e-04</internalNodes>
          <leafValues>
            1.1327703297138214e-01 -1.3144108653068542e-01</leafValues></_>
        <_>
          <internalNodes>
            0 -1 537 -4.5117218978703022e-03</internalNodes>
          <leafValues>
            -4.4390797615051270e-01 3.7136755883693695e-02</leafValues></_>
        <_>
          <internalNodes>
            0 -1 587 -3.4414459951221943e-03</internalNodes>
          <leafValues>
            2.1754419803619385e-01 -8.1769473850727081e-02</leafValues></_>
        <_>
          <internalNodes>
            0 -1 179 -3.2274931669235229e-02</internalNodes>
          <leafValues>
            5.7154536247253418e-01 -2.6592703536152840e-02</leafValues></_>
        <_>
          <internalNodes>
            0 -1 719 -8.9408922940492630e-04</internalNodes>
          <leafValues>
            1.4226995408535004e-01 -1.1008571833372116e-01</leafValues></_>
        <_>
          <internalNodes>
            0 -1 717 5.3619816899299622e-03</internalNodes>
          <leafValues>
            -7.8199394047260284e-02 2.0119057595729828e-01</leafValues></_>
        <_>
          <internalNodes>
            0 -1 455 -2.7949875220656395e-03</internalNodes>
          <leafValues>
            -2.7972418069839478e-01 5.4150588810443878e-02</leafValues></_>
        <_>
          <internalNodes>
            0 -1 428 -5.8449972420930862e-03</internalNodes>
