<?xml version="1.0"?>
<opencv_storage>
<cascade>
  <stageType>BOOST</stageType>
  <featureType>HAAR</featureType>
  <height>20</height>
  <width>20</width>
  <stageParams>
    <boostType>GAB</boostType>
    <minHitRate>9.9500000476837158e-01</minHitRate>
    <maxFalseAlarm>5.0000000000000000e-01</maxFalseAlarm>
    <weightTrimRate>9.4999999999999996e-01</weightTrimRate>
    <maxDepth>1</maxDepth>
    <maxWeakCount>100</maxWeakCount></stageParams>
  <featureParams>
    <maxCatCount>0</maxCatCount>
    <featSize>1</featSize>
    <mode>BASIC</mode></featureParams>
  <stageNum>7</stageNum>
  <stages>
    <!-- stage 0 -->
    <_>
      <maxWeakCount>2</maxWeakCount>
      <stageThreshold>-1.0867521166801453e-01</stageThreshold>
      <weakClassifiers>
        <_>
          <internalNodes>
            0 -1 6 5.3478576242923737e-02</internalNodes>
          <leafValues>
            -8.7750291824340820e-01 8.8870882987976074e-01</leafValues></_>
        <_>
          <internalNodes>
            0 -1 5 -3.9059437811374664e-02</internalNodes>
          <leafValues>
            7.6882773637771606e-01 -9.6128875017166138e-01</leafValues></_></weakClassifiers></_>
    <!-- stage 1 -->
    <_>
      <maxWeakCount>2</maxWeakCount>
      <stageThreshold>-1.6536286473274231e-01</stageThreshold>
      <weakClassifiers>
        <_>
          <internalNodes>
            0 -1 4 -3.9736837148666382e-02</internalNodes>
          <leafValues>
            7.4924165010452271e-01 -8.0609416961669922e-01</leafValues></_>
        <_>
          <internalNodes>
            0 -1 20 3.6887176334857941e-02</internalNodes>
          <leafValues>
            -8.6436414718627930e-01 6.4073133468627930e-01</leafValues></_></weakClassifiers></_>
    <!-- stage 2 -->
    <_>
      <maxWeakCount>2</maxWeakCount>
      <stageThreshold>-1.8748304247856140e-01</stageThreshold>
      <weakClassifiers>
        <_>
          <internalNodes>
            0 -1 19 4.2839668691158295e-02</internalNodes>
          <leafValues>
            -8.1250000000000000e-01 7.3747497797012329e-01</leafValues></_>
        <_>
          <internalNodes>
            0 -1 13 -2.9141303151845932e-02</internalNodes>
          <leafValues>
            6.2501692771911621e-01 -8.5613465309143066e-01</leafValues></_></weakClassifiers></_>
    <!-- stage 3 -->
    <_>
      <maxWeakCount>3</maxWeakCount>
      <stageThreshold>-5.2844971418380737e-01</stageThreshold>
      <weakClassifiers>
        <_>
          <internalNodes>
            0 -1 0 6.9051114842295647e-03</internalNodes>
          <leafValues>
            -6.1363637447357178e-01 7.9120880365371704e-01</leafValues></_>
        <_>
          <internalNodes>
            0 -1 11 -9.3768872320652008e-03</internalNodes>
          <leafValues>
            8.3488160371780396e-01 -5.4119348526000977e-01</leafValues></_>
        <_>
          <internalNodes>
            0 -1 6 7.4036717414855957e-02</internalNodes>
          <leafValues>
            -6.9983351230621338e-01 6.2638020515441895e-01</leafValues></_></weakClassifiers></_>
    <!-- stage 4 -->
    <_>
      <maxWeakCount>6</maxWeakCount>
      <stageThreshold>-5.5817633867263794e-01</stageThreshold>
      <weakClassifiers>
        <_>
          <internalNodes>
            0 -1 16 6.7135756835341454e-03</internalNodes>
          <leafValues>
            -7.1034485101699829e-01 7.1645569801330566e-01</leafValues></_>
        <_>
          <internalNodes>
            0 -1 15 3.6942358128726482e-03</internalNodes>
          <leafValues>
            -6.1976188421249390e-01 6.8205332756042480e-01</leafValues></_>
        <_>
          <internalNodes>
            0 -1 22 -1.7611932009458542e-02</internalNodes>
          <leafValues>
            6.7147880792617798e-01 -5.6616407632827759e-01</leafValues></_>
        <_>
          <internalNodes>
            0 -1 18 1.2371095363050699e-03</internalNodes>
          <leafValues>
            -7.7497446537017822e-01 4.5940849184989929e-01</leafValues></_>
        <_>
          <internalNodes>
            0 -1 8 8.8731274008750916e-02</internalNodes>
          <leafValues>
            -8.7121164798736572e-01 3.8539761304855347e-01</leafValues></_>
        <_>
          <internalNodes>
            0 -1 3 1.9315191311761737e-03</internalNodes>
          <leafValues>
            -6.5298181772232056e-01 4.9328836798667908e-01</leafValues></_></weakClassifiers></_>
    <!-- stage 5 -->
    <_>
      <maxWeakCount>6</maxWeakCount>
      <stageThreshold>-8.0014193058013916e-01</stageThreshold>
      <weakClassifiers>
        <_>
          <internalNodes>
            0 -1 2 2.5867946445941925e-02</internalNodes>
          <leafValues>
            -7.6058393716812134e-01 7.0521092414855957e-01</leafValues></_>
        <_>
          <internalNodes>
            0 -1 17 2.6668261736631393e-02</internalNodes>
          <leafValues>
            -7.6050597429275513e-01 5.0849294662475586e-01</leafValues></_>
        <_>
          <internalNodes>
            0 -1 7 1.0409682989120483e-02</internalNodes>
          <leafValues>
            -5.7737606763839722e-01 5.7572239637374878e-01</leafValues></_>
        <_>
          <internalNodes>
            0 -1 9 1.4595859101973474e-04</internalNodes>
          <leafValues>
            3.7876200675964355e-01 -8.9669108390808105e-01</leafValues></_>
        <_>
          <internalNodes>
            0 -1 9 -7.6483498560264707e-05</internalNodes>
          <leafValues>
            -8.8968575000762939e-01 3.7434542179107666e-01</leafValues></_>
        <_>
          <internalNodes>
            0 -1 10 -1.0081412270665169e-02</internalNodes>
          <leafValues>
            5.4521661996841431e-01 -6.2188464403152466e-01</leafValues></_></weakClassifiers></_>
    <!-- stage 6 -->
    <_>
      <maxWeakCount>5</maxWeakCount>
      <stageThreshold>-1.1047859191894531e+00</stageThreshold>
      <weakClassifiers>
        <_>
          <internalNodes>
            0 -1 21 -1.5028598136268556e-04</internalNodes>
          <leafValues>
            -9.6796339750289917e-01 5.8462220430374146e-01</leafValues></_>
        <_>
          <internalNodes>
            0 -1 1 2.2473599761724472e-02</internalNodes>
          <leafValues>
            -6.4197242259979248e-01 5.8710861206054688e-01</leafValues></_>
        <_>
          <internalNodes>
            0 -1 14 7.2801747592166066e-05</internalNodes>
          <leafValues>
            3.3202803134918213e-01 -9.1218656301498413e-01</leafValues></_>
        <_>
          <internalNodes>
            0 -1 14 -1.1672703112708405e-04</internalNodes>
          <leafValues>
            -8.5155987739562988e-01 3.5363766551017761e-01</leafValues></_>
        <_>
          <internalNodes>
            0 -1 12 4.4323481619358063e-02</internalNodes>
          <leafValues>
            -5.2790385484695435e-01 5.4383808374404907e-01</leafValues></_></weakClassifiers></_></stages>
  <features>
    <_>
      <rects>
        <_>
          0 8 4 2 -1.</_>
        <_>
          2 8 2 2 2.</_></rects>
      <tilted>0</tilted></_>
    <_>
      <rects>
        <_>
          0 8 6 3 -1.</_>
        <_>
          2 8 2 3 3.</_></rects>
      <tilted>0</tilted></_>
    <_>
      <rects>
        <_>
          1 6 9 3 -1.</_>
        <_>
          4 6 3 3 3.</_></rects>
      <tilted>0</tilted></_>
    <_>
      <rects>
        <_>
          1 10 3 1 -1.</_>
        <_>
          2 10 1 1 3.</_></rects>
      <tilted>0</tilted></_>
    <_>
      <rects>
        <_>
          2 1 8 10 -1.</_>
        <_>
          2 1 4 5 2.</_>
        <_>
          6 6 4 5 2.</_></rects>
      <tilted>0</tilted></_>
    <_>
      <rects>
        <_>
          3 7 12 4 -1.</_>
        <_>
          7 7 4 4 3.</_></rects>
      <tilted>0</tilted></_>
    <_>
      <rects>
        <_>
          4 0 4 12 -1.</_>
        <_>
          4 4 4 4 3.</_></rects>
      <tilted>0</tilted></_>
    <_>
      <rects>
        <_>
          5 0 9 2 -1.</_>
        <_>
          5 1 9 1 2.</_></rects>
      <tilted>0</tilted></_>
    <_>
      <rects>
        <_>
          5 0 13 12 -1.</_>
        <_>
          5 4 13 4 3.</_></rects>
      <tilted>0</tilted></_>
    <_>
      <rects>
        <_>
          5 5 1 2 -1.</_>
        <_>
          5 6 1 1 2.</_></rects>
      <tilted>0</tilted></_>
    <_>
      <rects>
        <_>
          5 18 9 2 -1.</_>
        <_>
          5 19 9 1 2.</_></rects>
      <tilted>0</tilted></_>
    <_>
      <rects>
        <_>
          5 18 10 2 -1.</_>
        <_>
          5 19 10 1 2.</_></rects>
      <tilted>0</tilted></_>
    <_>
      <rects>
        <_>
          6 0 10 4 -1.</_>
        <_>
          6 2 10 2 2.</_></rects>
      <tilted>0</tilted></_>
    <_>
      <rects>
        <_>
          6 3 2 12 -1.</_>
        <_>
          6 9 2 6 2.</_></rects>
      <tilted>0</tilted></_>
    <_>
      <rects>
        <_>
          6 5 1 2 -1.</_>
        <_>
          6 6 1 1 2.</_></rects>
      <tilted>0</tilted></_>
    <_>
      <rects>
        <_>
          7 16 5 2 -1.</_>
        <_>
          7 17 5 1 2.</_></rects>
      <tilted>0</tilted></_>
    <_>
      <rects>
        <_>
          8 0 3 6 -1.</_>
        <_>
          8 2 3 2 3.</_></rects>
      <tilted>0</tilted></_>
    <_>
      <rects>
        <_>
          8 7 12 2 -1.</_>
        <_>
          12 7 4 2 3.</_></rects>
      <tilted>0</tilted></_>
    <_>
      <rects>
        <_>
          9 8 2 5 -1.</_>
        <_>
          10 8 1 5 2.</_></rects>
      <tilted>0</tilted></_>
    <_>
      <rects>
        <_>
          11 4 9 13 -1.</_>
        <_>
          14 4 3 13 3.</_></rects>
      <tilted>0</tilted></_>
    <_>
      <rects>
        <_>
          13 1 4 12 -1.</_>
        <_>
          13 5 4 4 3.</_></rects>
      <tilted>0</tilted></_>
    <_>
      <rects>
        <_>
          14 9 2 2 -1.</_>
        <_>
          15 9 1 2 2.</_></rects>
      <tilted>0</tilted></_>
    <_>
      <rects>
        <_>
          16 7 4 4 -1.</_>
        <_>
          18 7 2 4 2.</_></rects>
      <tilted>0</tilted></_></features></cascade>
</opencv_storage>
