<?xml version="1.0"?>
<opencv_storage>
<stage7>
  <maxWeakCount>6</maxWeakCount>
  <stageThreshold>-6.8766719102859497e-01</stageThreshold>
  <weakClassifiers>
    <_>
      <internalNodes>
        0 -1 76117 -2.0671889069490135e-04</internalNodes>
      <leafValues>
        -8.6634844541549683e-01 5.5370450019836426e-01</leafValues></_>
    <_>
      <internalNodes>
        0 -1 26183 -2.4186085909605026e-02</internalNodes>
      <leafValues>
        3.9911603927612305e-01 -6.2099272012710571e-01</leafValues></_>
    <_>
      <internalNodes>
        0 -1 68288 -8.4981191903352737e-03</internalNodes>
      <leafValues>
        4.1649487614631653e-01 -7.5173532962799072e-01</leafValues></_>
    <_>
      <internalNodes>
        0 -1 77821 -8.6554419249296188e-03</internalNodes>
      <leafValues>
        3.4829252958297729e-01 -6.3013768196105957e-01</leafValues></_>
    <_>
      <internalNodes>
        0 -1 51025 -3.1496132723987103e-03</internalNodes>
      <leafValues>
        5.3963804244995117e-01 -4.5811393857002258e-01</leafValues></_>
    <_>
      <internalNodes>
        0 -1 3391 6.5660297870635986e-02</internalNodes>
      <leafValues>
        -3.6800575256347656e-01 6.4112198352813721e-01</leafValues></_></weakClassifiers></stage7>
</opencv_storage>
