<?xml version="1.0"?>
<opencv_storage>
<stage6>
  <maxWeakCount>6</maxWeakCount>
  <stageThreshold>-1.1583912372589111e+00</stageThreshold>
  <weakClassifiers>
    <_>
      <internalNodes>
        0 -1 53796 2.1654630079865456e-02</internalNodes>
      <leafValues>
        -8.0608367919921875e-01 6.0901564359664917e-01</leafValues></_>
    <_>
      <internalNodes>
        0 -1 4912 3.0662773177027702e-02</internalNodes>
      <leafValues>
        -5.4229438304901123e-01 4.7761520743370056e-01</leafValues></_>
    <_>
      <internalNodes>
        0 -1 70345 2.5607861578464508e-02</internalNodes>
      <leafValues>
        -6.2870442867279053e-01 4.6788868308067322e-01</leafValues></_>
    <_>
      <internalNodes>
        0 -1 34629 7.8097935765981674e-03</internalNodes>
      <leafValues>
        -4.5904484391212463e-01 4.9131512641906738e-01</leafValues></_>
    <_>
      <internalNodes>
        0 -1 2198 6.4259685575962067e-02</internalNodes>
      <leafValues>
        -4.0695166587829590e-01 5.7728695869445801e-01</leafValues></_>
    <_>
      <internalNodes>
        0 -1 60046 3.2421983778476715e-02</internalNodes>
      <leafValues>
        -4.3181493878364563e-01 5.9800040721893311e-01</leafValues></_></weakClassifiers></stage6>
</opencv_storage>
