<?xml version="1.0"?>
<opencv_storage>
<stage8>
  <maxWeakCount>15</maxWeakCount>
  <stageThreshold>-8.8392120599746704e-01</stageThreshold>
  <weakClassifiers>
    <_>
      <internalNodes>
        0 -1 42035 1.4164412394165993e-02</internalNodes>
      <leafValues>
        -2.0000000298023224e-01 5.8571428060531616e-01</leafValues></_>
    <_>
      <internalNodes>
        0 -1 64900 -3.2278527505695820e-03</internalNodes>
      <leafValues>
        6.0521531105041504e-01 -1.4723925292491913e-01</leafValues></_>
    <_>
      <internalNodes>
        0 -1 45129 -5.9862677007913589e-03</internalNodes>
      <leafValues>
        5.6358969211578369e-01 -1.6155986487865448e-01</leafValues></_>
    <_>
      <internalNodes>
        0 -1 59903 -1.2254130840301514e-01</internalNodes>
      <leafValues>
        -6.6281676292419434e-01 1.1341733485460281e-01</leafValues></_>
    <_>
      <internalNodes>
        0 -1 36728 1.3919832184910774e-02</internalNodes>
      <leafValues>
        2.0642122626304626e-01 -6.4533102512359619e-01</leafValues></_>
    <_>
      <internalNodes>
        0 -1 65062 -2.0864000543951988e-03</internalNodes>
      <leafValues>
        3.6240327358245850e-01 -2.8865247964859009e-01</leafValues></_>
    <_>
      <internalNodes>
        0 -1 37848 -1.1454926803708076e-02</internalNodes>
      <leafValues>
        -5.7260322570800781e-01 2.1782630681991577e-01</leafValues></_>
    <_>
      <internalNodes>
        0 -1 56663 1.5399547293782234e-02</internalNodes>
      <leafValues>
        3.2428957521915436e-02 -8.7760508060455322e-01</leafValues></_>
    <_>
      <internalNodes>
        0 -1 57236 4.8133600503206253e-03</internalNodes>
      <leafValues>
        -1.7115168273448944e-01 5.6048655509948730e-01</leafValues></_>
    <_>
      <internalNodes>
        0 -1 57236 -6.7025339230895042e-03</internalNodes>
      <leafValues>
        5.4913568496704102e-01 -1.3329757750034332e-01</leafValues></_>
    <_>
      <internalNodes>
        0 -1 52977 5.5903275497257710e-03</internalNodes>
      <leafValues>
        -4.1450357437133789e-01 1.7176251113414764e-01</leafValues></_>
    <_>
      <internalNodes>
        0 -1 51369 1.1566950008273125e-02</internalNodes>
      <leafValues>
        -1.1625464260578156e-01 6.8048834800720215e-01</leafValues></_>
    <_>
      <internalNodes>
        0 -1 52932 -4.2504759039729834e-04</internalNodes>
      <leafValues>
        -7.3775202035903931e-01 1.3184317946434021e-01</leafValues></_>
    <_>
      <internalNodes>
        0 -1 55890 -3.9147781208157539e-03</internalNodes>
      <leafValues>
        6.2556195259094238e-01 -1.4427536725997925e-01</leafValues></_>
    <_>
      <internalNodes>
        0 -1 67714 -1.7217770218849182e-02</internalNodes>
      <leafValues>
        5.0555658340454102e-01 -1.3621152937412262e-01</leafValues></_></weakClassifiers></stage8>
</opencv_storage>
