<?xml version="1.0"?>
<opencv_storage>
<stage9>
  <maxWeakCount>12</maxWeakCount>
  <stageThreshold>-8.8221967220306396e-01</stageThreshold>
  <weakClassifiers>
    <_>
      <internalNodes>
        0 -1 51429 1.7204293981194496e-02</internalNodes>
      <leafValues>
        -3.7053570151329041e-01 2.5460124015808105e-01</leafValues></_>
    <_>
      <internalNodes>
        0 -1 56648 -1.8371023179497570e-04</internalNodes>
      <leafValues>
        -9.3250668048858643e-01 8.5455067455768585e-02</leafValues></_>
    <_>
      <internalNodes>
        0 -1 52337 -2.3424244136549532e-04</internalNodes>
      <leafValues>
        -5.7756799459457397e-01 1.6702137887477875e-01</leafValues></_>
    <_>
      <internalNodes>
        0 -1 60530 2.4037504044827074e-04</internalNodes>
      <leafValues>
        -2.5918576121330261e-01 3.4934875369071960e-01</leafValues></_>
    <_>
      <internalNodes>
        0 -1 47621 2.2982689552009106e-03</internalNodes>
      <leafValues>
        -2.9590442776679993e-01 3.2202780246734619e-01</leafValues></_>
    <_>
      <internalNodes>
        0 -1 54580 3.8068108260631561e-03</internalNodes>
      <leafValues>
        7.0376351475715637e-02 -8.4547317028045654e-01</leafValues></_>
    <_>
      <internalNodes>
        0 -1 57874 -2.8819646686315536e-02</internalNodes>
      <leafValues>
        -7.4000895023345947e-01 9.2609174549579620e-02</leafValues></_>
    <_>
      <internalNodes>
        0 -1 60534 -1.1476967483758926e-03</internalNodes>
      <leafValues>
        -7.6618951559066772e-01 9.9330283701419830e-02</leafValues></_>
    <_>
      <internalNodes>
        0 -1 56736 -6.9521262776106596e-04</internalNodes>
      <leafValues>
        4.6345484256744385e-01 -2.2875057160854340e-01</leafValues></_>
    <_>
      <internalNodes>
        0 -1 52144 -1.7420541262254119e-03</internalNodes>
      <leafValues>
        5.5104267597198486e-01 -1.8294270336627960e-01</leafValues></_>
    <_>
      <internalNodes>
        0 -1 57427 3.8863797672092915e-03</internalNodes>
      <leafValues>
        -1.9338756799697876e-01 5.3778082132339478e-01</leafValues></_>
    <_>
      <internalNodes>
        0 -1 33201 -2.4503157474100590e-03</internalNodes>
      <leafValues>
        4.0074157714843750e-01 -2.1497449278831482e-01</leafValues></_></weakClassifiers></stage9>
</opencv_storage>
