<?xml version="1.0"?>
<opencv_storage>
<stage4>
  <maxWeakCount>6</maxWeakCount>
  <stageThreshold>-6.4654397964477539e-01</stageThreshold>
  <weakClassifiers>
    <_>
      <internalNodes>
        0 -1 19308 -3.6699268966913223e-02</internalNodes>
      <leafValues>
        6.8759572505950928e-01 -6.0323888063430786e-01</leafValues></_>
    <_>
      <internalNodes>
        0 -1 52757 -4.6235412359237671e-02</internalNodes>
      <leafValues>
        4.3003913760185242e-01 -8.8335776329040527e-01</leafValues></_>
    <_>
      <internalNodes>
        0 -1 34628 1.0331150144338608e-02</internalNodes>
      <leafValues>
        -4.8714596033096313e-01 7.1778637170791626e-01</leafValues></_>
    <_>
      <internalNodes>
        0 -1 65889 1.7238859087228775e-02</internalNodes>
      <leafValues>
        -5.9213745594024658e-01 4.6830689907073975e-01</leafValues></_>
    <_>
      <internalNodes>
        0 -1 12992 9.3768425285816193e-03</internalNodes>
      <leafValues>
        -6.8661504983901978e-01 3.8821086287498474e-01</leafValues></_>
    <_>
      <internalNodes>
        0 -1 76205 -2.1037478290963918e-04</internalNodes>
      <leafValues>
        -9.6380633115768433e-01 2.4029059708118439e-01</leafValues></_></weakClassifiers></stage4>
</opencv_storage>
