<?xml version="1.0"?>
<opencv_storage>
<stage5>
  <maxWeakCount>5</maxWeakCount>
  <stageThreshold>-5.3359955549240112e-01</stageThreshold>
  <weakClassifiers>
    <_>
      <internalNodes>
        0 -1 76280 -1.5608736430294812e-04</internalNodes>
      <leafValues>
        -8.2083332538604736e-01 5.8288288116455078e-01</leafValues></_>
    <_>
      <internalNodes>
        0 -1 76203 1.0513258166611195e-04</internalNodes>
      <leafValues>
        3.6852994561195374e-01 -8.0723434686660767e-01</leafValues></_>
    <_>
      <internalNodes>
        0 -1 76203 -6.2645027355756611e-05</internalNodes>
      <leafValues>
        -7.8180170059204102e-01 3.2319772243499756e-01</leafValues></_>
    <_>
      <internalNodes>
        0 -1 43584 3.3824541606009007e-03</internalNodes>
      <leafValues>
        -8.4674680233001709e-01 2.8343874216079712e-01</leafValues></_>
    <_>
      <internalNodes>
        0 -1 49949 -3.9541670121252537e-03</internalNodes>
      <leafValues>
        4.8783162236213684e-01 -5.2207583189010620e-01</leafValues></_></weakClassifiers></stage5>
</opencv_storage>
