<?xml version="1.0"?>
<opencv_storage>
<stage7>
  <maxWeakCount>13</maxWeakCount>
  <stageThreshold>-1.0322588682174683e+00</stageThreshold>
  <weakClassifiers>
    <_>
      <internalNodes>
        0 -1 58505 3.2089147134684026e-04</internalNodes>
      <leafValues>
        -3.8521400094032288e-01 3.3788394927978516e-01</leafValues></_>
    <_>
      <internalNodes>
        0 -1 52644 -6.5228741732425988e-05</internalNodes>
      <leafValues>
        -8.0931723117828369e-01 1.2156766653060913e-01</leafValues></_>
    <_>
      <internalNodes>
        0 -1 31598 4.1737845167517662e-03</internalNodes>
      <leafValues>
        -2.2844694554805756e-01 4.2593660950660706e-01</leafValues></_>
    <_>
      <internalNodes>
        0 -1 54576 -1.6457254532724619e-03</internalNodes>
      <leafValues>
        -7.8755003213882446e-01 1.0986325144767761e-01</leafValues></_>
    <_>
      <internalNodes>
        0 -1 42599 4.2588151991367340e-03</internalNodes>
      <leafValues>
        -7.8814792633056641e-01 1.2302552908658981e-01</leafValues></_>
    <_>
      <internalNodes>
        0 -1 52011 1.1154639534652233e-02</internalNodes>
      <leafValues>
        7.1278259158134460e-02 -8.4820371866226196e-01</leafValues></_>
    <_>
      <internalNodes>
        0 -1 62366 4.1871819121297449e-05</internalNodes>
      <leafValues>
        -3.6435383558273315e-01 1.9602039456367493e-01</leafValues></_>
    <_>
      <internalNodes>
        0 -1 70001 2.0686211064457893e-02</internalNodes>
      <leafValues>
        9.5921389758586884e-02 -8.9097887277603149e-01</leafValues></_>
    <_>
      <internalNodes>
        0 -1 32511 5.5782206356525421e-02</internalNodes>
      <leafValues>
        6.7766197025775909e-02 -7.9909497499465942e-01</leafValues></_>
    <_>
      <internalNodes>
        0 -1 47601 -4.9934373237192631e-04</internalNodes>
      <leafValues>
        2.1431963145732880e-01 -4.0218251943588257e-01</leafValues></_>
    <_>
      <internalNodes>
        0 -1 56909 5.7433680922258645e-05</internalNodes>
      <leafValues>
        -4.9596485495567322e-01 1.4705629646778107e-01</leafValues></_>
    <_>
      <internalNodes>
        0 -1 46991 -2.4836583063006401e-02</internalNodes>
      <leafValues>
        5.5047184228897095e-01 -1.6503088176250458e-01</leafValues></_>
    <_>
      <internalNodes>
        0 -1 56420 3.0422955751419067e-02</internalNodes>
      <leafValues>
        -2.9599079489707947e-01 4.0381154417991638e-01</leafValues></_></weakClassifiers></stage7>
</opencv_storage>
